digraph Tree {
node [shape=box] ;
0 [label="ElectronegativityMean <= 1.983\nentropy = 0.995\nsamples = 84818\nvalue = [39013, 45805]"] ;
1 [label="SecondIonizationEnergyMean <= 19.365\nentropy = 0.647\nsamples = 24527\nvalue = [20474, 4053]"] ;
0 -> 1 [labeldistance=2.5, labelangle=45, headlabel="True"] ;
2 [label="entropy = 0.476\nsamples = 19624\nvalue = [17618, 2006]"] ;
1 -> 2 ;
3 [label="entropy = 0.98\nsamples = 4903\nvalue = [2856, 2047]"] ;
1 -> 3 ;
4 [label="SecondIonizationEnergyMean <= 26.988\nentropy = 0.89\nsamples = 60291\nvalue = [18539, 41752]"] ;
0 -> 4 [labeldistance=2.5, labelangle=-45, headlabel="False"] ;
5 [label="entropy = 0.985\nsamples = 24366\nvalue = [10406, 13960]"] ;
4 -> 5 ;
6 [label="entropy = 0.772\nsamples = 35925\nvalue = [8133, 27792]"] ;
4 -> 6 ;
}