digraph Tree {
node [shape=box] ;
0 [label="ElectronegativityMean <= 1.983\nentropy = 0.996\nsamples = 84818\nvalue = [39102, 45716]"] ;
1 [label="SecondIonizationEnergyMean <= 19.366\nentropy = 0.648\nsamples = 24641\nvalue = [20560, 4081]"] ;
0 -> 1 [labeldistance=2.5, labelangle=45, headlabel="True"] ;
2 [label="entropy = 0.477\nsamples = 19667\nvalue = [17649, 2018]"] ;
1 -> 2 ;
3 [label="entropy = 0.979\nsamples = 4974\nvalue = [2911, 2063]"] ;
1 -> 3 ;
4 [label="SecondIonizationEnergyMean <= 26.716\nentropy = 0.891\nsamples = 60177\nvalue = [18542, 41635]"] ;
0 -> 4 [labeldistance=2.5, labelangle=-45, headlabel="False"] ;
5 [label="ColumnMean <= 11.712\nentropy = 0.987\nsamples = 22987\nvalue = [9974, 13013]"] ;
4 -> 5 ;
6 [label="entropy = 0.989\nsamples = 10521\nvalue = [5904, 4617]"] ;
5 -> 6 ;
7 [label="entropy = 0.911\nsamples = 12466\nvalue = [4070, 8396]"] ;
5 -> 7 ;
8 [label="entropy = 0.779\nsamples = 37190\nvalue = [8568, 28622]"] ;
4 -> 8 ;
}