digraph Tree {
node [shape=box] ;
0 [label="ElectronegativityMean <= 2.036\nentropy = 0.995\nsamples = 99473\nvalue = [45432, 54041]"] ;
1 [label="ColumnMin <= 2.5\nentropy = 0.677\nsamples = 31476\nvalue = [25851, 5625]"] ;
0 -> 1 [labeldistance=2.5, labelangle=45, headlabel="True"] ;
2 [label="ElectronegativityMax <= 5.09\nentropy = 0.924\nsamples = 7008\nvalue = [4628, 2380]"] ;
1 -> 2 ;
3 [label="ColumnMax <= 13.5\nentropy = 0.758\nsamples = 4585\nvalue = [3581, 1004]"] ;
2 -> 3 ;
4 [label="AtomicWeightMax <= 279.021\nentropy = 0.451\nsamples = 1671\nvalue = [1513, 158]"] ;
3 -> 4 ;
5 [label="AtomicWeightMin <= 23.647\nentropy = 0.543\nsamples = 1249\nvalue = [1093, 156]"] ;
4 -> 5 ;
6 [label="ElectronegativityMax <= 1.575\nentropy = 0.713\nsamples = 526\nvalue = [423, 103]"] ;
5 -> 6 ;
7 [label="entropy = 0.0\nsamples = 45\nvalue = [45, 0]"] ;
6 -> 7 ;
8 [label="ColumnMax <= 2.5\nentropy = 0.749\nsamples = 481\nvalue = [378, 103]"] ;
6 -> 8 ;
9 [label="entropy = 0.961\nsamples = 39\nvalue = [15, 24]"] ;
8 -> 9 ;
10 [label="entropy = 0.677\nsamples = 442\nvalue = [363, 79]"] ;
8 -> 10 ;
11 [label="ElectronegativityMin <= 1.56\nentropy = 0.378\nsamples = 723\nvalue = [670, 53]"] ;
5 -> 11 ;
12 [label="AtomicRadiusMax <= 2.175\nentropy = 0.327\nsamples = 702\nvalue = [660, 42]"] ;
11 -> 12 ;
13 [label="entropy = 0.177\nsamples = 376\nvalue = [366, 10]"] ;
12 -> 13 ;
14 [label="entropy = 0.463\nsamples = 326\nvalue = [294, 32]"] ;
12 -> 14 ;
15 [label="AtomicRadiusMean <= 1.973\nentropy = 0.998\nsamples = 21\nvalue = [10, 11]"] ;
11 -> 15 ;
16 [label="entropy = 0.918\nsamples = 15\nvalue = [10, 5]"] ;
15 -> 16 ;
17 [label="entropy = 0.0\nsamples = 6\nvalue = [0, 6]"] ;
15 -> 17 ;
18 [label="AtomicWeightMean <= 138.679\nentropy = 0.043\nsamples = 422\nvalue = [420, 2]"] ;
4 -> 18 ;
19 [label="entropy = 0.0\nsamples = 347\nvalue = [347, 0]"] ;
18 -> 19 ;
20 [label="AtomicWeightMean <= 138.827\nentropy = 0.177\nsamples = 75\nvalue = [73, 2]"] ;
18 -> 20 ;
21 [label="entropy = 0.0\nsamples = 1\nvalue = [0, 1]"] ;
20 -> 21 ;
22 [label="AtomicWeightMean <= 139.826\nentropy = 0.103\nsamples = 74\nvalue = [73, 1]"] ;
20 -> 22 ;
23 [label="entropy = 0.414\nsamples = 12\nvalue = [11, 1]"] ;
22 -> 23 ;
24 [label="entropy = 0.0\nsamples = 62\nvalue = [62, 0]"] ;
22 -> 24 ;
25 [label="AtomicRadiusMin <= 1.425\nentropy = 0.869\nsamples = 2914\nvalue = [2068, 846]"] ;
3 -> 25 ;
26 [label="AtomicRadiusMax <= 4.375\nentropy = 0.979\nsamples = 1316\nvalue = [771, 545]"] ;
25 -> 26 ;
27 [label="ColumnMin <= 1.5\nentropy = 0.95\nsamples = 1205\nvalue = [760, 445]"] ;
26 -> 27 ;
28 [label="RowMax <= 7.0\nentropy = 1.0\nsamples = 610\nvalue = [300, 310]"] ;
27 -> 28 ;
29 [label="entropy = 0.973\nsamples = 432\nvalue = [174, 258]"] ;
28 -> 29 ;
30 [label="entropy = 0.871\nsamples = 178\nvalue = [126, 52]"] ;
28 -> 30 ;
31 [label="ColumnMax <= 14.5\nentropy = 0.773\nsamples = 595\nvalue = [460, 135]"] ;
27 -> 31 ;
32 [label="entropy = 0.468\nsamples = 221\nvalue = [199, 22]"] ;
31 -> 32 ;
33 [label="entropy = 0.884\nsamples = 374\nvalue = [261, 113]"] ;
31 -> 33 ;
34 [label="AtomicWeightMax <= 301.522\nentropy = 0.466\nsamples = 111\nvalue = [11, 100]"] ;
26 -> 34 ;
35 [label="ElectronegativityMean <= 1.397\nentropy = 0.318\nsamples = 104\nvalue = [6, 98]"] ;
34 -> 35 ;
36 [label="entropy = 0.691\nsamples = 27\nvalue = [5, 22]"] ;
35 -> 36 ;
37 [label="entropy = 0.1\nsamples = 77\nvalue = [1, 76]"] ;
35 -> 37 ;
38 [label="AtomicWeightMax <= 416.18\nentropy = 0.863\nsamples = 7\nvalue = [5, 2]"] ;
34 -> 38 ;
39 [label="entropy = 0.0\nsamples = 4\nvalue = [4, 0]"] ;
38 -> 39 ;
40 [label="entropy = 0.918\nsamples = 3\nvalue = [1, 2]"] ;
38 -> 40 ;
41 [label="ElectronegativityMin <= 0.99\nentropy = 0.698\nsamples = 1598\nvalue = [1297, 301]"] ;
25 -> 41 ;
42 [label="ElectronegativityMax <= 2.125\nentropy = 0.856\nsamples = 806\nvalue = [580, 226]"] ;
41 -> 42 ;
43 [label="AtomicRadiusMean <= 1.806\nentropy = 0.972\nsamples = 102\nvalue = [41, 61]"] ;
42 -> 43 ;
44 [label="entropy = 0.996\nsamples = 69\nvalue = [37, 32]"] ;
43 -> 44 ;
45 [label="entropy = 0.533\nsamples = 33\nvalue = [4, 29]"] ;
43 -> 45 ;
46 [label="ColumnMean <= 11.292\nentropy = 0.786\nsamples = 704\nvalue = [539, 165]"] ;
42 -> 46 ;
47 [label="entropy = 0.757\nsamples = 687\nvalue = [537, 150]"] ;
46 -> 47 ;
48 [label="entropy = 0.523\nsamples = 17\nvalue = [2, 15]"] ;
46 -> 48 ;
49 [label="RowMin <= 4.5\nentropy = 0.452\nsamples = 792\nvalue = [717, 75]"] ;
41 -> 49 ;
50 [label="ColumnMean <= 11.0\nentropy = 0.399\nsamples = 771\nvalue = [710, 61]"] ;
49 -> 50 ;
51 [label="entropy = 0.352\nsamples = 753\nvalue = [703, 50]"] ;
50 -> 51 ;
52 [label="entropy = 0.964\nsamples = 18\nvalue = [7, 11]"] ;
50 -> 52 ;
53 [label="ColumnMax <= 14.5\nentropy = 0.918\nsamples = 21\nvalue = [7, 14]"] ;
49 -> 53 ;
54 [label="entropy = 0.863\nsamples = 7\nvalue = [5, 2]"] ;
53 -> 54 ;
55 [label="entropy = 0.592\nsamples = 14\nvalue = [2, 12]"] ;
53 -> 55 ;
56 [label="ElectronegativityMean <= 1.786\nentropy = 0.987\nsamples = 2423\nvalue = [1047, 1376]"] ;
2 -> 56 ;
57 [label="RowMax <= 11.0\nentropy = 0.938\nsamples = 785\nvalue = [507, 278]"] ;
56 -> 57 ;
58 [label="ColumnMean <= 10.3\nentropy = 0.777\nsamples = 109\nvalue = [25, 84]"] ;
57 -> 58 ;
59 [label="ColumnMean <= 8.8\nentropy = 0.654\nsamples = 101\nvalue = [17, 84]"] ;
58 -> 59 ;
60 [label="ColumnMean <= 6.0\nentropy = 0.818\nsamples = 59\nvalue = [15, 44]"] ;
59 -> 60 ;
61 [label="entropy = 0.535\nsamples = 41\nvalue = [5, 36]"] ;
60 -> 61 ;
62 [label="entropy = 0.991\nsamples = 18\nvalue = [10, 8]"] ;
60 -> 62 ;
63 [label="ElectronegativityMean <= 1.783\nentropy = 0.276\nsamples = 42\nvalue = [2, 40]"] ;
59 -> 63 ;
64 [label="entropy = 0.165\nsamples = 41\nvalue = [1, 40]"] ;
63 -> 64 ;
65 [label="entropy = 0.0\nsamples = 1\nvalue = [1, 0]"] ;
63 -> 65 ;
66 [label="entropy = 0.0\nsamples = 8\nvalue = [8, 0]"] ;
58 -> 66 ;
67 [label="ColumnMax <= 44.5\nentropy = 0.865\nsamples = 676\nvalue = [482, 194]"] ;
57 -> 67 ;
68 [label="AtomicWeightMin <= 6.494\nentropy = 0.415\nsamples = 287\nvalue = [263, 24]"] ;
67 -> 68 ;
69 [label="ColumnMean <= 5.087\nentropy = 0.874\nsamples = 17\nvalue = [5, 12]"] ;
68 -> 69 ;
70 [label="entropy = 0.391\nsamples = 13\nvalue = [1, 12]"] ;
69 -> 70 ;
71 [label="entropy = 0.0\nsamples = 4\nvalue = [4, 0]"] ;
69 -> 71 ;
72 [label="ElectronegativityMin <= 1.43\nentropy = 0.262\nsamples = 270\nvalue = [258, 12]"] ;
68 -> 72 ;
73 [label="entropy = 0.142\nsamples = 248\nvalue = [243, 5]"] ;
72 -> 73 ;
74 [label="entropy = 0.902\nsamples = 22\nvalue = [15, 7]"] ;
72 -> 74 ;
75 [label="AtomicRadiusMean <= 1.501\nentropy = 0.989\nsamples = 389\nvalue = [219, 170]"] ;
67 -> 75 ;
76 [label="AtomicRadiusMin <= 2.275\nentropy = 0.684\nsamples = 154\nvalue = [126, 28]"] ;
75 -> 76 ;
77 [label="entropy = 0.503\nsamples = 126\nvalue = [112, 14]"] ;
76 -> 77 ;
78 [label="entropy = 1.0\nsamples = 28\nvalue = [14, 14]"] ;
76 -> 78 ;
79 [label="RowMax <= 17.0\nentropy = 0.968\nsamples = 235\nvalue = [93, 142]"] ;
75 -> 79 ;
80 [label="entropy = 0.561\nsamples = 61\nvalue = [8, 53]"] ;
79 -> 80 ;
81 [label="entropy = 1.0\nsamples = 174\nvalue = [85, 89]"] ;
79 -> 81 ;
82 [label="AtomicWeightMean <= 132.283\nentropy = 0.915\nsamples = 1638\nvalue = [540, 1098]"] ;
56 -> 82 ;
83 [label="ElectronegativityMax <= 10.125\nentropy = 0.892\nsamples = 1579\nvalue = [488, 1091]"] ;
82 -> 83 ;
84 [label="AtomicWeightMax <= 171.995\nentropy = 0.966\nsamples = 831\nvalue = [326, 505]"] ;
83 -> 84 ;
85 [label="ColumnMean <= 9.183\nentropy = 0.894\nsamples = 460\nvalue = [143, 317]"] ;
84 -> 85 ;
86 [label="entropy = 0.726\nsamples = 223\nvalue = [45, 178]"] ;
85 -> 86 ;
87 [label="entropy = 0.978\nsamples = 237\nvalue = [98, 139]"] ;
85 -> 87 ;
88 [label="AtomicRadiusMean <= 1.463\nentropy = 1.0\nsamples = 371\nvalue = [183, 188]"] ;
84 -> 88 ;
89 [label="entropy = 0.949\nsamples = 228\nvalue = [144, 84]"] ;
88 -> 89 ;
90 [label="entropy = 0.845\nsamples = 143\nvalue = [39, 104]"] ;
88 -> 90 ;
91 [label="RowMax <= 21.5\nentropy = 0.754\nsamples = 748\nvalue = [162, 586]"] ;
83 -> 91 ;
92 [label="AtomicWeightMax <= 419.154\nentropy = 0.489\nsamples = 527\nvalue = [56, 471]"] ;
91 -> 92 ;
93 [label="entropy = 0.43\nsamples = 500\nvalue = [44, 456]"] ;
92 -> 93 ;
94 [label="entropy = 0.991\nsamples = 27\nvalue = [12, 15]"] ;
92 -> 94 ;
95 [label="AtomicRadiusMean <= 1.606\nentropy = 0.999\nsamples = 221\nvalue = [106, 115]"] ;
91 -> 95 ;
96 [label="entropy = 0.925\nsamples = 150\nvalue = [99, 51]"] ;
95 -> 96 ;
97 [label="entropy = 0.465\nsamples = 71\nvalue = [7, 64]"] ;
95 -> 97 ;
98 [label="AtomicWeightMin <= 110.263\nentropy = 0.525\nsamples = 59\nvalue = [52, 7]"] ;
82 -> 98 ;
99 [label="entropy = 0.0\nsamples = 39\nvalue = [39, 0]"] ;
98 -> 99 ;
100 [label="ColumnMax <= 46.5\nentropy = 0.934\nsamples = 20\nvalue = [13, 7]"] ;
98 -> 100 ;
101 [label="entropy = 0.0\nsamples = 8\nvalue = [8, 0]"] ;
100 -> 101 ;
102 [label="AtomicRadiusMin <= 1.8\nentropy = 0.98\nsamples = 12\nvalue = [5, 7]"] ;
100 -> 102 ;
103 [label="entropy = 0.0\nsamples = 4\nvalue = [0, 4]"] ;
102 -> 103 ;
104 [label="entropy = 0.954\nsamples = 8\nvalue = [5, 3]"] ;
102 -> 104 ;
105 [label="ColumnMax <= 44.5\nentropy = 0.565\nsamples = 24468\nvalue = [21223, 3245]"] ;
1 -> 105 ;
106 [label="RowMean <= 2.914\nentropy = 0.416\nsamples = 16391\nvalue = [15016, 1375]"] ;
105 -> 106 ;
107 [label="AtomicWeightMin <= 43.301\nentropy = 0.955\nsamples = 426\nvalue = [266, 160]"] ;
106 -> 107 ;
108 [label="ElectronegativityMean <= 1.229\nentropy = 0.99\nsamples = 354\nvalue = [198, 156]"] ;
107 -> 108 ;
109 [label="entropy = 0.0\nsamples = 27\nvalue = [27, 0]"] ;
108 -> 109 ;
110 [label="AtomicRadiusMax <= 3.45\nentropy = 0.998\nsamples = 327\nvalue = [171, 156]"] ;
108 -> 110 ;
111 [label="RowMean <= 2.464\nentropy = 0.844\nsamples = 103\nvalue = [75, 28]"] ;
110 -> 111 ;
112 [label="entropy = 0.99\nsamples = 59\nvalue = [33, 26]"] ;
111 -> 112 ;
113 [label="entropy = 0.267\nsamples = 44\nvalue = [42, 2]"] ;
111 -> 113 ;
114 [label="ColumnMean <= 7.417\nentropy = 0.985\nsamples = 224\nvalue = [96, 128]"] ;
110 -> 114 ;
115 [label="entropy = 1.0\nsamples = 191\nvalue = [94, 97]"] ;
114 -> 115 ;
116 [label="entropy = 0.33\nsamples = 33\nvalue = [2, 31]"] ;
114 -> 116 ;
117 [label="ColumnMean <= 5.983\nentropy = 0.31\nsamples = 72\nvalue = [68, 4]"] ;
107 -> 117 ;
118 [label="AtomicWeightMax <= 1226.323\nentropy = 0.109\nsamples = 69\nvalue = [68, 1]"] ;
117 -> 118 ;
119 [label="entropy = 0.0\nsamples = 68\nvalue = [68, 0]"] ;
118 -> 119 ;
120 [label="entropy = 0.0\nsamples = 1\nvalue = [0, 1]"] ;
118 -> 120 ;
121 [label="entropy = 0.0\nsamples = 3\nvalue = [0, 3]"] ;
117 -> 121 ;
122 [label="ColumnMean <= 11.31\nentropy = 0.388\nsamples = 15965\nvalue = [14750, 1215]"] ;
106 -> 122 ;
123 [label="AtomicRadiusMin <= 1.525\nentropy = 0.347\nsamples = 14706\nvalue = [13749, 957]"] ;
122 -> 123 ;
124 [label="AtomicRadiusMin <= 0.625\nentropy = 0.412\nsamples = 9387\nvalue = [8610, 777]"] ;
123 -> 124 ;
125 [label="AtomicRadiusMean <= 1.325\nentropy = 0.98\nsamples = 139\nvalue = [81, 58]"] ;
124 -> 125 ;
126 [label="entropy = 0.0\nsamples = 35\nvalue = [35, 0]"] ;
125 -> 126 ;
127 [label="entropy = 0.99\nsamples = 104\nvalue = [46, 58]"] ;
125 -> 127 ;
128 [label="AtomicRadiusMean <= 1.602\nentropy = 0.394\nsamples = 9248\nvalue = [8529, 719]"] ;
124 -> 128 ;
129 [label="entropy = 0.358\nsamples = 7862\nvalue = [7328, 534]"] ;
128 -> 129 ;
130 [label="entropy = 0.567\nsamples = 1386\nvalue = [1201, 185]"] ;
128 -> 130 ;
131 [label="ColumnMean <= 4.414\nentropy = 0.213\nsamples = 5319\nvalue = [5139, 180]"] ;
123 -> 131 ;
132 [label="AtomicRadiusMax <= 1.775\nentropy = 0.035\nsamples = 1084\nvalue = [1080, 4]"] ;
131 -> 132 ;
133 [label="entropy = 0.258\nsamples = 69\nvalue = [66, 3]"] ;
132 -> 133 ;
134 [label="entropy = 0.011\nsamples = 1015\nvalue = [1014, 1]"] ;
132 -> 134 ;
135 [label="AtomicWeightMin <= 80.55\nentropy = 0.249\nsamples = 4235\nvalue = [4059, 176]"] ;
131 -> 135 ;
136 [label="entropy = 0.376\nsamples = 1005\nvalue = [932, 73]"] ;
135 -> 136 ;
137 [label="entropy = 0.204\nsamples = 3230\nvalue = [3127, 103]"] ;
135 -> 137 ;
138 [label="ElectronegativityMin <= 1.275\nentropy = 0.732\nsamples = 1259\nvalue = [1001, 258]"] ;
122 -> 138 ;
139 [label="ElectronegativityMean <= 1.829\nentropy = 0.998\nsamples = 162\nvalue = [77, 85]"] ;
138 -> 139 ;
140 [label="AtomicRadiusMean <= 1.579\nentropy = 0.833\nsamples = 72\nvalue = [53, 19]"] ;
139 -> 140 ;
141 [label="entropy = 0.451\nsamples = 53\nvalue = [48, 5]"] ;
140 -> 141 ;
142 [label="entropy = 0.831\nsamples = 19\nvalue = [5, 14]"] ;
140 -> 142 ;
143 [label="ElectronegativityMin <= 1.125\nentropy = 0.837\nsamples = 90\nvalue = [24, 66]"] ;
139 -> 143 ;
144 [label="entropy = 0.75\nsamples = 14\nvalue = [11, 3]"] ;
143 -> 144 ;
145 [label="entropy = 0.66\nsamples = 76\nvalue = [13, 63]"] ;
143 -> 145 ;
146 [label="ColumnMean <= 13.9\nentropy = 0.629\nsamples = 1097\nvalue = [924, 173]"] ;
138 -> 146 ;
147 [label="ElectronegativityMean <= 1.986\nentropy = 0.433\nsamples = 810\nvalue = [738, 72]"] ;
146 -> 147 ;
148 [label="entropy = 0.33\nsamples = 675\nvalue = [634, 41]"] ;
147 -> 148 ;
149 [label="entropy = 0.777\nsamples = 135\nvalue = [104, 31]"] ;
147 -> 149 ;
150 [label="AtomicWeightMin <= 62.747\nentropy = 0.936\nsamples = 287\nvalue = [186, 101]"] ;
146 -> 150 ;
151 [label="entropy = 0.995\nsamples = 105\nvalue = [48, 57]"] ;
150 -> 151 ;
152 [label="entropy = 0.798\nsamples = 182\nvalue = [138, 44]"] ;
150 -> 152 ;
153 [label="ElectronegativityMean <= 1.948\nentropy = 0.781\nsamples = 8077\nvalue = [6207, 1870]"] ;
105 -> 153 ;
154 [label="AtomicRadiusMean <= 1.497\nentropy = 0.696\nsamples = 6614\nvalue = [5373, 1241]"] ;
153 -> 154 ;
155 [label="RowMean <= 2.884\nentropy = 0.565\nsamples = 4938\nvalue = [4282, 656]"] ;
154 -> 155 ;
156 [label="AtomicRadiusMean <= 1.117\nentropy = 0.999\nsamples = 297\nvalue = [153, 144]"] ;
155 -> 156 ;
157 [label="AtomicRadiusMean <= 0.738\nentropy = 0.436\nsamples = 100\nvalue = [91, 9]"] ;
156 -> 157 ;
158 [label="entropy = 0.0\nsamples = 2\nvalue = [0, 2]"] ;
157 -> 158 ;
159 [label="entropy = 0.371\nsamples = 98\nvalue = [91, 7]"] ;
157 -> 159 ;
160 [label="ElectronegativityMean <= 1.708\nentropy = 0.899\nsamples = 197\nvalue = [62, 135]"] ;
156 -> 160 ;
161 [label="entropy = 0.965\nsamples = 64\nvalue = [39, 25]"] ;
160 -> 161 ;
162 [label="entropy = 0.664\nsamples = 133\nvalue = [23, 110]"] ;
160 -> 162 ;
163 [label="ColumnMax <= 48.5\nentropy = 0.501\nsamples = 4641\nvalue = [4129, 512]"] ;
155 -> 163 ;
164 [label="RowMax <= 19.0\nentropy = 0.844\nsamples = 361\nvalue = [263, 98]"] ;
163 -> 164 ;
165 [label="entropy = 0.964\nsamples = 226\nvalue = [138, 88]"] ;
164 -> 165 ;
166 [label="entropy = 0.381\nsamples = 135\nvalue = [125, 10]"] ;
164 -> 166 ;
167 [label="ColumnMean <= 13.845\nentropy = 0.459\nsamples = 4280\nvalue = [3866, 414]"] ;
163 -> 167 ;
168 [label="entropy = 0.446\nsamples = 4257\nvalue = [3861, 396]"] ;
167 -> 168 ;
169 [label="entropy = 0.755\nsamples = 23\nvalue = [5, 18]"] ;
167 -> 169 ;
170 [label="AtomicWeightMax <= 414.349\nentropy = 0.933\nsamples = 1676\nvalue = [1091, 585]"] ;
154 -> 170 ;
171 [label="ElectronegativityMin <= 1.44\nentropy = 0.888\nsamples = 304\nvalue = [93, 211]"] ;
170 -> 171 ;
172 [label="ElectronegativityMean <= 1.895\nentropy = 0.627\nsamples = 51\nvalue = [43, 8]"] ;
171 -> 172 ;
173 [label="entropy = 0.262\nsamples = 45\nvalue = [43, 2]"] ;
172 -> 173 ;
174 [label="entropy = 0.0\nsamples = 6\nvalue = [0, 6]"] ;
172 -> 174 ;
175 [label="AtomicRadiusMin <= 1.7\nentropy = 0.717\nsamples = 253\nvalue = [50, 203]"] ;
171 -> 175 ;
176 [label="entropy = 0.425\nsamples = 173\nvalue = [15, 158]"] ;
175 -> 176 ;
177 [label="entropy = 0.989\nsamples = 80\nvalue = [35, 45]"] ;
175 -> 177 ;
178 [label="AtomicRadiusMax <= 221.025\nentropy = 0.845\nsamples = 1372\nvalue = [998, 374]"] ;
170 -> 178 ;
179 [label="AtomicRadiusMean <= 1.713\nentropy = 0.806\nsamples = 1325\nvalue = [998, 327]"] ;
178 -> 179 ;
180 [label="entropy = 0.722\nsamples = 1111\nvalue = [889, 222]"] ;
179 -> 180 ;
181 [label="entropy = 1.0\nsamples = 214\nvalue = [109, 105]"] ;
179 -> 181 ;
182 [label="entropy = 0.0\nsamples = 47\nvalue = [0, 47]"] ;
178 -> 182 ;
183 [label="ColumnMin <= 8.5\nentropy = 0.986\nsamples = 1463\nvalue = [834, 629]"] ;
153 -> 183 ;
184 [label="ColumnMean <= 8.211\nentropy = 0.998\nsamples = 875\nvalue = [417, 458]"] ;
183 -> 184 ;
185 [label="RowMean <= 4.318\nentropy = 0.715\nsamples = 168\nvalue = [33, 135]"] ;
184 -> 185 ;
186 [label="AtomicRadiusMean <= 1.423\nentropy = 0.555\nsamples = 155\nvalue = [20, 135]"] ;
185 -> 186 ;
187 [label="entropy = 0.677\nsamples = 112\nvalue = [20, 92]"] ;
186 -> 187 ;
188 [label="entropy = 0.0\nsamples = 43\nvalue = [0, 43]"] ;
186 -> 188 ;
189 [label="entropy = 0.0\nsamples = 13\nvalue = [13, 0]"] ;
185 -> 189 ;
190 [label="AtomicRadiusMean <= 1.316\nentropy = 0.995\nsamples = 707\nvalue = [384, 323]"] ;
184 -> 190 ;
191 [label="ColumnMean <= 12.55\nentropy = 0.844\nsamples = 272\nvalue = [198, 74]"] ;
190 -> 191 ;
192 [label="entropy = 0.752\nsamples = 246\nvalue = [193, 53]"] ;
191 -> 192 ;
193 [label="entropy = 0.706\nsamples = 26\nvalue = [5, 21]"] ;
191 -> 193 ;
194 [label="AtomicWeightMax <= 1353.954\nentropy = 0.985\nsamples = 435\nvalue = [186, 249]"] ;
190 -> 194 ;
195 [label="entropy = 0.966\nsamples = 403\nvalue = [158, 245]"] ;
194 -> 195 ;
196 [label="entropy = 0.544\nsamples = 32\nvalue = [28, 4]"] ;
194 -> 196 ;
197 [label="AtomicRadiusMin <= 1.65\nentropy = 0.87\nsamples = 588\nvalue = [417, 171]"] ;
183 -> 197 ;
198 [label="ColumnMax <= 124.0\nentropy = 0.988\nsamples = 223\nvalue = [126, 97]"] ;
197 -> 198 ;
199 [label="ElectronegativityMin <= 2.62\nentropy = 0.931\nsamples = 170\nvalue = [111, 59]"] ;
198 -> 199 ;
200 [label="entropy = 0.869\nsamples = 148\nvalue = [105, 43]"] ;
199 -> 200 ;
201 [label="entropy = 0.845\nsamples = 22\nvalue = [6, 16]"] ;
199 -> 201 ;
202 [label="RowMean <= 4.735\nentropy = 0.86\nsamples = 53\nvalue = [15, 38]"] ;
198 -> 202 ;
203 [label="entropy = 0.629\nsamples = 38\nvalue = [6, 32]"] ;
202 -> 203 ;
204 [label="entropy = 0.971\nsamples = 15\nvalue = [9, 6]"] ;
202 -> 204 ;
205 [label="ColumnMean <= 13.664\nentropy = 0.727\nsamples = 365\nvalue = [291, 74]"] ;
197 -> 205 ;
206 [label="AtomicWeightMean <= 33.858\nentropy = 0.658\nsamples = 341\nvalue = [283, 58]"] ;
205 -> 206 ;
207 [label="entropy = 0.985\nsamples = 28\nvalue = [12, 16]"] ;
206 -> 207 ;
208 [label="entropy = 0.569\nsamples = 313\nvalue = [271, 42]"] ;
206 -> 208 ;
209 [label="ElectronegativityMax <= 8.25\nentropy = 0.918\nsamples = 24\nvalue = [8, 16]"] ;
205 -> 209 ;
210 [label="entropy = 0.722\nsamples = 5\nvalue = [4, 1]"] ;
209 -> 210 ;
211 [label="entropy = 0.742\nsamples = 19\nvalue = [4, 15]"] ;
209 -> 211 ;
212 [label="AtomicRadiusMean <= 0.93\nentropy = 0.866\nsamples = 67997\nvalue = [19581, 48416]"] ;
0 -> 212 [labeldistance=2.5, labelangle=-45, headlabel="False"] ;
213 [label="RowMean <= 2.484\nentropy = 0.677\nsamples = 29624\nvalue = [5288, 24336]"] ;
212 -> 213 ;
214 [label="ColumnMean <= 12.908\nentropy = 0.524\nsamples = 15523\nvalue = [1835, 13688]"] ;
213 -> 214 ;
215 [label="AtomicRadiusMin <= 2.05\nentropy = 0.369\nsamples = 8493\nvalue = [601, 7892]"] ;
214 -> 215 ;
216 [label="ColumnMax <= 14.5\nentropy = 0.332\nsamples = 7531\nvalue = [460, 7071]"] ;
215 -> 216 ;
217 [label="AtomicWeightMean <= 11.399\nentropy = 0.98\nsamples = 60\nvalue = [25, 35]"] ;
216 -> 217 ;
218 [label="ElectronegativityMin <= 1.63\nentropy = 0.353\nsamples = 30\nvalue = [2, 28]"] ;
217 -> 218 ;
219 [label="entropy = 0.918\nsamples = 3\nvalue = [1, 2]"] ;
218 -> 219 ;
220 [label="entropy = 0.229\nsamples = 27\nvalue = [1, 26]"] ;
218 -> 220 ;
221 [label="ElectronegativityMean <= 2.057\nentropy = 0.784\nsamples = 30\nvalue = [23, 7]"] ;
217 -> 221 ;
222 [label="entropy = 0.65\nsamples = 6\nvalue = [1, 5]"] ;
221 -> 222 ;
223 [label="entropy = 0.414\nsamples = 24\nvalue = [22, 2]"] ;
221 -> 223 ;
224 [label="ColumnMean <= 11.797\nentropy = 0.32\nsamples = 7471\nvalue = [435, 7036]"] ;
216 -> 224 ;
225 [label="AtomicRadiusMax <= 18.725\nentropy = 0.273\nsamples = 4949\nvalue = [232, 4717]"] ;
224 -> 225 ;
226 [label="entropy = 0.262\nsamples = 4886\nvalue = [217, 4669]"] ;
225 -> 226 ;
227 [label="entropy = 0.792\nsamples = 63\nvalue = [15, 48]"] ;
225 -> 227 ;
228 [label="ElectronegativityMin <= 1.845\nentropy = 0.404\nsamples = 2522\nvalue = [203, 2319]"] ;
224 -> 228 ;
229 [label="entropy = 0.336\nsamples = 1944\nvalue = [121, 1823]"] ;
228 -> 229 ;
230 [label="entropy = 0.589\nsamples = 578\nvalue = [82, 496]"] ;
228 -> 230 ;
231 [label="ElectronegativityMean <= 2.571\nentropy = 0.601\nsamples = 962\nvalue = [141, 821]"] ;
215 -> 231 ;
232 [label="ColumnMean <= 11.738\nentropy = 0.855\nsamples = 247\nvalue = [69, 178]"] ;
231 -> 232 ;
233 [label="RowMean <= 1.941\nentropy = 0.503\nsamples = 126\nvalue = [14, 112]"] ;
232 -> 233 ;
234 [label="entropy = 0.137\nsamples = 52\nvalue = [1, 51]"] ;
233 -> 234 ;
235 [label="entropy = 0.671\nsamples = 74\nvalue = [13, 61]"] ;
233 -> 235 ;
236 [label="ElectronegativityMean <= 2.375\nentropy = 0.994\nsamples = 121\nvalue = [55, 66]"] ;
232 -> 236 ;
237 [label="entropy = 0.0\nsamples = 4\nvalue = [4, 0]"] ;
236 -> 237 ;
238 [label="entropy = 0.988\nsamples = 117\nvalue = [51, 66]"] ;
236 -> 238 ;
239 [label="AtomicWeightMin <= 34.991\nentropy = 0.471\nsamples = 715\nvalue = [72, 643]"] ;
231 -> 239 ;
240 [label="RowMean <= 1.848\nentropy = 0.403\nsamples = 560\nvalue = [45, 515]"] ;
239 -> 240 ;
241 [label="entropy = 0.0\nsamples = 65\nvalue = [0, 65]"] ;
240 -> 241 ;
242 [label="entropy = 0.439\nsamples = 495\nvalue = [45, 450]"] ;
240 -> 242 ;
243 [label="AtomicRadiusMax <= 16.375\nentropy = 0.667\nsamples = 155\nvalue = [27, 128]"] ;
239 -> 243 ;
244 [label="entropy = 0.949\nsamples = 57\nvalue = [21, 36]"] ;
243 -> 244 ;
245 [label="entropy = 0.332\nsamples = 98\nvalue = [6, 92]"] ;
243 -> 245 ;
246 [label="ElectronegativityMean <= 2.94\nentropy = 0.67\nsamples = 7030\nvalue = [1234, 5796]"] ;
214 -> 246 ;
247 [label="ElectronegativityMean <= 2.526\nentropy = 0.568\nsamples = 4104\nvalue = [550, 3554]"] ;
246 -> 247 ;
248 [label="AtomicRadiusMean <= 0.802\nentropy = 0.989\nsamples = 64\nvalue = [36, 28]"] ;
247 -> 248 ;
249 [label="AtomicWeightMin <= 63.359\nentropy = 0.469\nsamples = 20\nvalue = [18, 2]"] ;
248 -> 249 ;
250 [label="entropy = 0.0\nsamples = 18\nvalue = [18, 0]"] ;
249 -> 250 ;
251 [label="entropy = 0.0\nsamples = 2\nvalue = [0, 2]"] ;
249 -> 251 ;
252 [label="AtomicRadiusMean <= 0.875\nentropy = 0.976\nsamples = 44\nvalue = [18, 26]"] ;
248 -> 252 ;
253 [label="entropy = 0.996\nsamples = 39\nvalue = [18, 21]"] ;
252 -> 253 ;
254 [label="entropy = 0.0\nsamples = 5\nvalue = [0, 5]"] ;
252 -> 254 ;
255 [label="ColumnMean <= 15.292\nentropy = 0.55\nsamples = 4040\nvalue = [514, 3526]"] ;
247 -> 255 ;
256 [label="ColumnMean <= 13.038\nentropy = 0.575\nsamples = 3725\nvalue = [509, 3216]"] ;
255 -> 256 ;
257 [label="entropy = 0.861\nsamples = 257\nvalue = [73, 184]"] ;
256 -> 257 ;
258 [label="entropy = 0.546\nsamples = 3468\nvalue = [436, 3032]"] ;
256 -> 258 ;
259 [label="ElectronegativityMax <= 3.3\nentropy = 0.118\nsamples = 315\nvalue = [5, 310]"] ;
255 -> 259 ;
260 [label="entropy = 0.0\nsamples = 1\nvalue = [1, 0]"] ;
259 -> 260 ;
261 [label="entropy = 0.098\nsamples = 314\nvalue = [4, 310]"] ;
259 -> 261 ;
262 [label="ColumnMean <= 14.449\nentropy = 0.785\nsamples = 2926\nvalue = [684, 2242]"] ;
246 -> 262 ;
263 [label="AtomicRadiusMean <= 0.679\nentropy = 0.62\nsamples = 773\nvalue = [119, 654]"] ;
262 -> 263 ;
264 [label="entropy = 0.0\nsamples = 56\nvalue = [0, 56]"] ;
263 -> 264 ;
265 [label="AtomicWeightMean <= 17.988\nentropy = 0.648\nsamples = 717\nvalue = [119, 598]"] ;
263 -> 265 ;
266 [label="entropy = 0.996\nsamples = 39\nvalue = [18, 21]"] ;
265 -> 266 ;
267 [label="entropy = 0.607\nsamples = 678\nvalue = [101, 577]"] ;
265 -> 267 ;
268 [label="ElectronegativityMean <= 3.242\nentropy = 0.83\nsamples = 2153\nvalue = [565, 1588]"] ;
262 -> 268 ;
269 [label="ElectronegativityMax <= 120.4\nentropy = 0.881\nsamples = 1525\nvalue = [457, 1068]"] ;
268 -> 269 ;
270 [label="entropy = 0.87\nsamples = 1490\nvalue = [433, 1057]"] ;
269 -> 270 ;
271 [label="entropy = 0.898\nsamples = 35\nvalue = [24, 11]"] ;
269 -> 271 ;
272 [label="ColumnMean <= 16.229\nentropy = 0.662\nsamples = 628\nvalue = [108, 520]"] ;
268 -> 272 ;
273 [label="entropy = 0.713\nsamples = 511\nvalue = [100, 411]"] ;
272 -> 273 ;
274 [label="entropy = 0.36\nsamples = 117\nvalue = [8, 109]"] ;
272 -> 274 ;
275 [label="ColumnMin <= 6.5\nentropy = 0.803\nsamples = 14101\nvalue = [3453, 10648]"] ;
213 -> 275 ;
276 [label="AtomicRadiusMax <= 11.1\nentropy = 0.684\nsamples = 7639\nvalue = [1390, 6249]"] ;
275 -> 276 ;
277 [label="AtomicRadiusMax <= 1.875\nentropy = 0.652\nsamples = 6833\nvalue = [1146, 5687]"] ;
276 -> 277 ;
278 [label="ElectronegativityMean <= 2.68\nentropy = 0.859\nsamples = 711\nvalue = [201, 510]"] ;
277 -> 278 ;
279 [label="AtomicRadiusMin <= 0.65\nentropy = 1.0\nsamples = 127\nvalue = [65, 62]"] ;
278 -> 279 ;
280 [label="entropy = 0.837\nsamples = 45\nvalue = [12, 33]"] ;
279 -> 280 ;
281 [label="entropy = 0.937\nsamples = 82\nvalue = [53, 29]"] ;
279 -> 281 ;
282 [label="AtomicWeightMax <= 51.469\nentropy = 0.783\nsamples = 584\nvalue = [136, 448]"] ;
278 -> 282 ;
283 [label="entropy = 0.445\nsamples = 151\nvalue = [14, 137]"] ;
282 -> 283 ;
284 [label="entropy = 0.858\nsamples = 433\nvalue = [122, 311]"] ;
282 -> 284 ;
285 [label="ColumnMean <= 12.78\nentropy = 0.621\nsamples = 6122\nvalue = [945, 5177]"] ;
277 -> 285 ;
286 [label="AtomicRadiusMin <= 1.275\nentropy = 0.724\nsamples = 1658\nvalue = [333, 1325]"] ;
285 -> 286 ;
287 [label="entropy = 0.5\nsamples = 409\nvalue = [45, 364]"] ;
286 -> 287 ;
288 [label="entropy = 0.779\nsamples = 1249\nvalue = [288, 961]"] ;
286 -> 288 ;
289 [label="ElectronegativityMean <= 2.766\nentropy = 0.577\nsamples = 4464\nvalue = [612, 3852]"] ;
285 -> 289 ;
290 [label="entropy = 0.343\nsamples = 595\nvalue = [38, 557]"] ;
289 -> 290 ;
291 [label="entropy = 0.606\nsamples = 3869\nvalue = [574, 3295]"] ;
289 -> 291 ;
292 [label="AtomicRadiusMean <= 0.802\nentropy = 0.885\nsamples = 806\nvalue = [244, 562]"] ;
276 -> 292 ;
293 [label="AtomicWeightMean <= 28.513\nentropy = 0.993\nsamples = 188\nvalue = [85, 103]"] ;
292 -> 293 ;
294 [label="RowMin <= 2.5\nentropy = 0.937\nsamples = 99\nvalue = [64, 35]"] ;
293 -> 294 ;
295 [label="entropy = 0.0\nsamples = 3\nvalue = [0, 3]"] ;
294 -> 295 ;
296 [label="entropy = 0.918\nsamples = 96\nvalue = [64, 32]"] ;
294 -> 296 ;
297 [label="ElectronegativityMean <= 3.04\nentropy = 0.788\nsamples = 89\nvalue = [21, 68]"] ;
293 -> 297 ;
298 [label="entropy = 0.391\nsamples = 39\nvalue = [3, 36]"] ;
297 -> 298 ;
299 [label="entropy = 0.943\nsamples = 50\nvalue = [18, 32]"] ;
297 -> 299 ;
300 [label="ColumnMean <= 12.633\nentropy = 0.823\nsamples = 618\nvalue = [159, 459]"] ;
292 -> 300 ;
301 [label="AtomicRadiusMax <= 11.3\nentropy = 0.974\nsamples = 190\nvalue = [77, 113]"] ;
300 -> 301 ;
302 [label="entropy = 0.65\nsamples = 18\nvalue = [15, 3]"] ;
301 -> 302 ;
303 [label="entropy = 0.943\nsamples = 172\nvalue = [62, 110]"] ;
301 -> 303 ;
304 [label="AtomicWeightMax <= 411.417\nentropy = 0.705\nsamples = 428\nvalue = [82, 346]"] ;
300 -> 304 ;
305 [label="entropy = 0.444\nsamples = 130\nvalue = [12, 118]"] ;
304 -> 305 ;
306 [label="entropy = 0.786\nsamples = 298\nvalue = [70, 228]"] ;
304 -> 306 ;
307 [label="ColumnMean <= 13.618\nentropy = 0.904\nsamples = 6462\nvalue = [2063, 4399]"] ;
275 -> 307 ;
308 [label="AtomicWeightMin <= 57.844\nentropy = 0.981\nsamples = 2018\nvalue = [846, 1172]"] ;
307 -> 308 ;
309 [label="ColumnMin <= 16.5\nentropy = 0.993\nsamples = 893\nvalue = [489, 404]"] ;
308 -> 309 ;
310 [label="AtomicRadiusMax <= 2.95\nentropy = 0.994\nsamples = 669\nvalue = [303, 366]"] ;
309 -> 310 ;
311 [label="entropy = 0.963\nsamples = 341\nvalue = [209, 132]"] ;
310 -> 311 ;
312 [label="entropy = 0.864\nsamples = 328\nvalue = [94, 234]"] ;
310 -> 312 ;
313 [label="AtomicRadiusMean <= 0.878\nentropy = 0.657\nsamples = 224\nvalue = [186, 38]"] ;
309 -> 313 ;
314 [label="entropy = 0.497\nsamples = 202\nvalue = [180, 22]"] ;
313 -> 314 ;
315 [label="entropy = 0.845\nsamples = 22\nvalue = [6, 16]"] ;
313 -> 315 ;
316 [label="ColumnMin <= 20.5\nentropy = 0.901\nsamples = 1125\nvalue = [357, 768]"] ;
308 -> 316 ;
317 [label="AtomicWeightMax <= 102.938\nentropy = 0.803\nsamples = 796\nvalue = [195, 601]"] ;
316 -> 317 ;
318 [label="entropy = 0.187\nsamples = 70\nvalue = [2, 68]"] ;
317 -> 318 ;
319 [label="entropy = 0.835\nsamples = 726\nvalue = [193, 533]"] ;
317 -> 319 ;
320 [label="ColumnMean <= 13.061\nentropy = 1.0\nsamples = 329\nvalue = [162, 167]"] ;
316 -> 320 ;
321 [label="entropy = 0.904\nsamples = 125\nvalue = [40, 85]"] ;
320 -> 321 ;
322 [label="entropy = 0.972\nsamples = 204\nvalue = [122, 82]"] ;
320 -> 322 ;
323 [label="ColumnMean <= 15.738\nentropy = 0.847\nsamples = 4444\nvalue = [1217, 3227]"] ;
307 -> 323 ;
324 [label="ElectronegativityMean <= 2.723\nentropy = 0.875\nsamples = 3912\nvalue = [1153, 2759]"] ;
323 -> 324 ;
325 [label="ElectronegativityMean <= 2.697\nentropy = 0.514\nsamples = 244\nvalue = [28, 216]"] ;
324 -> 325 ;
326 [label="entropy = 0.599\nsamples = 192\nvalue = [28, 164]"] ;
325 -> 326 ;
327 [label="entropy = 0.0\nsamples = 52\nvalue = [0, 52]"] ;
325 -> 327 ;
328 [label="ElectronegativityMean <= 3.155\nentropy = 0.889\nsamples = 3668\nvalue = [1125, 2543]"] ;
324 -> 328 ;
329 [label="entropy = 0.91\nsamples = 3155\nvalue = [1027, 2128]"] ;
328 -> 329 ;
330 [label="entropy = 0.704\nsamples = 513\nvalue = [98, 415]"] ;
328 -> 330 ;
331 [label="AtomicWeightMean <= 49.193\nentropy = 0.53\nsamples = 532\nvalue = [64, 468]"] ;
323 -> 331 ;
332 [label="ElectronegativityMax <= 3.3\nentropy = 0.638\nsamples = 359\nvalue = [58, 301]"] ;
331 -> 332 ;
333 [label="entropy = 0.65\nsamples = 6\nvalue = [5, 1]"] ;
332 -> 333 ;
334 [label="entropy = 0.61\nsamples = 353\nvalue = [53, 300]"] ;
332 -> 334 ;
335 [label="RowMean <= 3.02\nentropy = 0.217\nsamples = 173\nvalue = [6, 167]"] ;
331 -> 335 ;
336 [label="entropy = 0.332\nsamples = 98\nvalue = [6, 92]"] ;
335 -> 336 ;
337 [label="entropy = 0.0\nsamples = 75\nvalue = [0, 75]"] ;
335 -> 337 ;
338 [label="ColumnMax <= 31.0\nentropy = 0.953\nsamples = 38373\nvalue = [14293, 24080]"] ;
212 -> 338 ;
339 [label="ColumnMean <= 11.45\nentropy = 0.954\nsamples = 3474\nvalue = [2173, 1301]"] ;
338 -> 339 ;
340 [label="AtomicRadiusMin <= 0.625\nentropy = 0.723\nsamples = 1847\nvalue = [1477, 370]"] ;
339 -> 340 ;
341 [label="ColumnMax <= 28.5\nentropy = 0.976\nsamples = 305\nvalue = [125, 180]"] ;
340 -> 341 ;
342 [label="ColumnMean <= 9.417\nentropy = 0.993\nsamples = 221\nvalue = [121, 100]"] ;
341 -> 342 ;
343 [label="ElectronegativityMin <= 2.1\nentropy = 0.843\nsamples = 107\nvalue = [29, 78]"] ;
342 -> 343 ;
344 [label="entropy = 0.571\nsamples = 89\nvalue = [12, 77]"] ;
343 -> 344 ;
345 [label="entropy = 0.31\nsamples = 18\nvalue = [17, 1]"] ;
343 -> 345 ;
346 [label="ColumnMean <= 10.125\nentropy = 0.708\nsamples = 114\nvalue = [92, 22]"] ;
342 -> 346 ;
347 [label="entropy = 0.156\nsamples = 44\nvalue = [43, 1]"] ;
346 -> 347 ;
348 [label="entropy = 0.881\nsamples = 70\nvalue = [49, 21]"] ;
346 -> 348 ;
349 [label="RowMax <= 13.5\nentropy = 0.276\nsamples = 84\nvalue = [4, 80]"] ;
341 -> 349 ;
350 [label="ElectronegativityMin <= 2.63\nentropy = 0.096\nsamples = 81\nvalue = [1, 80]"] ;
349 -> 350 ;
351 [label="entropy = 0.0\nsamples = 41\nvalue = [0, 41]"] ;
350 -> 351 ;
352 [label="entropy = 0.169\nsamples = 40\nvalue = [1, 39]"] ;
350 -> 352 ;
353 [label="entropy = 0.0\nsamples = 3\nvalue = [3, 0]"] ;
349 -> 353 ;
354 [label="ColumnMin <= 2.5\nentropy = 0.539\nsamples = 1542\nvalue = [1352, 190]"] ;
340 -> 354 ;
355 [label="ElectronegativityMean <= 2.198\nentropy = 0.984\nsamples = 230\nvalue = [132, 98]"] ;
354 -> 355 ;
356 [label="ColumnMean <= 8.9\nentropy = 0.99\nsamples = 147\nvalue = [65, 82]"] ;
355 -> 356 ;
357 [label="entropy = 0.794\nsamples = 46\nvalue = [35, 11]"] ;
356 -> 357 ;
358 [label="entropy = 0.878\nsamples = 101\nvalue = [30, 71]"] ;
356 -> 358 ;
359 [label="AtomicRadiusMean <= 1.161\nentropy = 0.707\nsamples = 83\nvalue = [67, 16]"] ;
355 -> 359 ;
360 [label="entropy = 0.391\nsamples = 52\nvalue = [48, 4]"] ;
359 -> 360 ;
361 [label="entropy = 0.963\nsamples = 31\nvalue = [19, 12]"] ;
359 -> 361 ;
362 [label="AtomicRadiusMax <= 1.525\nentropy = 0.366\nsamples = 1312\nvalue = [1220, 92]"] ;
354 -> 362 ;
363 [label="AtomicRadiusMax <= 1.325\nentropy = 0.106\nsamples = 286\nvalue = [282, 4]"] ;
362 -> 363 ;
364 [label="entropy = 0.672\nsamples = 17\nvalue = [14, 3]"] ;
363 -> 364 ;
365 [label="entropy = 0.035\nsamples = 269\nvalue = [268, 1]"] ;
363 -> 365 ;
366 [label="AtomicRadiusMax <= 4.025\nentropy = 0.422\nsamples = 1026\nvalue = [938, 88]"] ;
362 -> 366 ;
367 [label="entropy = 0.514\nsamples = 715\nvalue = [633, 82]"] ;
366 -> 367 ;
368 [label="entropy = 0.137\nsamples = 311\nvalue = [305, 6]"] ;
366 -> 368 ;
369 [label="ColumnMax <= 15.5\nentropy = 0.985\nsamples = 1627\nvalue = [696, 931]"] ;
339 -> 369 ;
370 [label="ColumnMean <= 13.833\nentropy = 0.736\nsamples = 256\nvalue = [203, 53]"] ;
369 -> 370 ;
371 [label="ColumnMin <= 6.5\nentropy = 0.234\nsamples = 157\nvalue = [151, 6]"] ;
370 -> 371 ;
372 [label="entropy = 0.0\nsamples = 1\nvalue = [0, 1]"] ;
371 -> 372 ;
373 [label="ColumnMean <= 12.583\nentropy = 0.205\nsamples = 156\nvalue = [151, 5]"] ;
371 -> 373 ;
374 [label="entropy = 0.074\nsamples = 111\nvalue = [110, 1]"] ;
373 -> 374 ;
375 [label="entropy = 0.433\nsamples = 45\nvalue = [41, 4]"] ;
373 -> 375 ;
376 [label="AtomicRadiusMean <= 1.137\nentropy = 0.998\nsamples = 99\nvalue = [52, 47]"] ;
370 -> 376 ;
377 [label="AtomicWeightMax <= 116.764\nentropy = 0.897\nsamples = 67\nvalue = [21, 46]"] ;
376 -> 377 ;
378 [label="entropy = 0.939\nsamples = 59\nvalue = [21, 38]"] ;
377 -> 378 ;
379 [label="entropy = 0.0\nsamples = 8\nvalue = [0, 8]"] ;
377 -> 379 ;
380 [label="AtomicWeightMean <= 74.311\nentropy = 0.201\nsamples = 32\nvalue = [31, 1]"] ;
376 -> 380 ;
381 [label="entropy = 1.0\nsamples = 2\nvalue = [1, 1]"] ;
380 -> 381 ;
382 [label="entropy = 0.0\nsamples = 30\nvalue = [30, 0]"] ;
380 -> 382 ;
383 [label="RowMax <= 6.5\nentropy = 0.942\nsamples = 1371\nvalue = [493, 878]"] ;
369 -> 383 ;
384 [label="ElectronegativityMin <= 1.43\nentropy = 0.87\nsamples = 1112\nvalue = [324, 788]"] ;
383 -> 384 ;
385 [label="AtomicWeightMax <= 139.511\nentropy = 0.526\nsamples = 278\nvalue = [33, 245]"] ;
384 -> 385 ;
386 [label="entropy = 0.297\nsamples = 133\nvalue = [7, 126]"] ;
385 -> 386 ;
387 [label="entropy = 0.679\nsamples = 145\nvalue = [26, 119]"] ;
385 -> 387 ;
388 [label="ColumnMean <= 13.875\nentropy = 0.933\nsamples = 834\nvalue = [291, 543]"] ;
384 -> 388 ;
389 [label="entropy = 0.983\nsamples = 302\nvalue = [174, 128]"] ;
388 -> 389 ;
390 [label="entropy = 0.76\nsamples = 532\nvalue = [117, 415]"] ;
388 -> 390 ;
391 [label="ColumnMean <= 13.875\nentropy = 0.932\nsamples = 259\nvalue = [169, 90]"] ;
383 -> 391 ;
392 [label="ElectronegativityMin <= 1.345\nentropy = 0.789\nsamples = 199\nvalue = [152, 47]"] ;
391 -> 392 ;
393 [label="entropy = 0.852\nsamples = 18\nvalue = [5, 13]"] ;
392 -> 393 ;
394 [label="entropy = 0.697\nsamples = 181\nvalue = [147, 34]"] ;
392 -> 394 ;
395 [label="AtomicWeightMin <= 73.781\nentropy = 0.86\nsamples = 60\nvalue = [17, 43]"] ;
391 -> 395 ;
396 [label="entropy = 0.575\nsamples = 44\nvalue = [6, 38]"] ;
395 -> 396 ;
397 [label="entropy = 0.896\nsamples = 16\nvalue = [11, 5]"] ;
395 -> 397 ;
398 [label="ColumnMean <= 12.65\nentropy = 0.932\nsamples = 34899\nvalue = [12120, 22779]"] ;
338 -> 398 ;
399 [label="RowMean <= 3.013\nentropy = 0.963\nsamples = 24355\nvalue = [9429, 14926]"] ;
398 -> 399 ;
400 [label="AtomicWeightMean <= 20.44\nentropy = 0.893\nsamples = 11371\nvalue = [3525, 7846]"] ;
399 -> 400 ;
401 [label="AtomicWeightMax <= 48.304\nentropy = 0.482\nsamples = 1086\nvalue = [113, 973]"] ;
400 -> 401 ;
402 [label="AtomicWeightMean <= 18.31\nentropy = 0.934\nsamples = 60\nvalue = [21, 39]"] ;
401 -> 402 ;
403 [label="entropy = 0.689\nsamples = 38\nvalue = [7, 31]"] ;
402 -> 403 ;
404 [label="entropy = 0.946\nsamples = 22\nvalue = [14, 8]"] ;
402 -> 404 ;
405 [label="AtomicWeightMax <= 140.77\nentropy = 0.435\nsamples = 1026\nvalue = [92, 934]"] ;
401 -> 405 ;
406 [label="entropy = 0.331\nsamples = 691\nvalue = [42, 649]"] ;
405 -> 406 ;
407 [label="entropy = 0.608\nsamples = 335\nvalue = [50, 285]"] ;
405 -> 407 ;
408 [label="AtomicRadiusMin <= 1.025\nentropy = 0.917\nsamples = 10285\nvalue = [3412, 6873]"] ;
400 -> 408 ;
409 [label="AtomicWeightMax <= 135.158\nentropy = 0.639\nsamples = 771\nvalue = [125, 646]"] ;
408 -> 409 ;
410 [label="entropy = 0.436\nsamples = 323\nvalue = [29, 294]"] ;
409 -> 410 ;
411 [label="entropy = 0.75\nsamples = 448\nvalue = [96, 352]"] ;
409 -> 411 ;
412 [label="AtomicRadiusMean <= 1.08\nentropy = 0.93\nsamples = 9514\nvalue = [3287, 6227]"] ;
408 -> 412 ;
413 [label="entropy = 0.943\nsamples = 8495\nvalue = [3060, 5435]"] ;
412 -> 413 ;
414 [label="entropy = 0.765\nsamples = 1019\nvalue = [227, 792]"] ;
412 -> 414 ;
415 [label="AtomicWeightMean <= 145.272\nentropy = 0.994\nsamples = 12984\nvalue = [5904, 7080]"] ;
399 -> 415 ;
416 [label="AtomicRadiusMean <= 1.382\nentropy = 0.991\nsamples = 12715\nvalue = [5640, 7075]"] ;
415 -> 416 ;
417 [label="ElectronegativityMean <= 2.361\nentropy = 0.999\nsamples = 10847\nvalue = [5246, 5601]"] ;
416 -> 417 ;
418 [label="entropy = 0.979\nsamples = 3804\nvalue = [2226, 1578]"] ;
417 -> 418 ;
419 [label="entropy = 0.985\nsamples = 7043\nvalue = [3020, 4023]"] ;
417 -> 419 ;
420 [label="ColumnMin <= 4.5\nentropy = 0.743\nsamples = 1868\nvalue = [394, 1474]"] ;
416 -> 420 ;
421 [label="entropy = 0.644\nsamples = 1596\nvalue = [262, 1334]"] ;
420 -> 421 ;
422 [label="entropy = 0.999\nsamples = 272\nvalue = [132, 140]"] ;
420 -> 422 ;
423 [label="ElectronegativityMin <= 0.805\nentropy = 0.133\nsamples = 269\nvalue = [264, 5]"] ;
415 -> 423 ;
424 [label="entropy = 0.0\nsamples = 1\nvalue = [0, 1]"] ;
423 -> 424 ;
425 [label="ColumnMean <= 12.263\nentropy = 0.112\nsamples = 268\nvalue = [264, 4]"] ;
423 -> 425 ;
426 [label="entropy = 0.066\nsamples = 256\nvalue = [254, 2]"] ;
425 -> 426 ;
427 [label="entropy = 0.65\nsamples = 12\nvalue = [10, 2]"] ;
425 -> 427 ;
428 [label="ColumnMean <= 12.671\nentropy = 0.819\nsamples = 10544\nvalue = [2691, 7853]"] ;
398 -> 428 ;
429 [label="RowMean <= 4.042\nentropy = 0.383\nsamples = 844\nvalue = [63, 781]"] ;
428 -> 429 ;
430 [label="ColumnMax <= 46.5\nentropy = 0.763\nsamples = 167\nvalue = [37, 130]"] ;
429 -> 430 ;
431 [label="ElectronegativityMin <= 2.03\nentropy = 0.94\nsamples = 28\nvalue = [18, 10]"] ;
430 -> 431 ;
432 [label="entropy = 0.353\nsamples = 15\nvalue = [14, 1]"] ;
431 -> 432 ;
433 [label="entropy = 0.89\nsamples = 13\nvalue = [4, 9]"] ;
431 -> 433 ;
434 [label="ColumnMin <= 8.5\nentropy = 0.576\nsamples = 139\nvalue = [19, 120]"] ;
430 -> 434 ;
435 [label="entropy = 0.391\nsamples = 117\nvalue = [9, 108]"] ;
434 -> 435 ;
436 [label="entropy = 0.994\nsamples = 22\nvalue = [10, 12]"] ;
434 -> 436 ;
437 [label="ColumnMin <= 21.0\nentropy = 0.235\nsamples = 677\nvalue = [26, 651]"] ;
429 -> 437 ;
438 [label="ElectronegativityMean <= 2.207\nentropy = 0.208\nsamples = 672\nvalue = [22, 650]"] ;
437 -> 438 ;
439 [label="entropy = 0.549\nsamples = 63\nvalue = [8, 55]"] ;
438 -> 439 ;
440 [label="entropy = 0.158\nsamples = 609\nvalue = [14, 595]"] ;
438 -> 440 ;
441 [label="ElectronegativityMean <= 2.246\nentropy = 0.722\nsamples = 5\nvalue = [4, 1]"] ;
437 -> 441 ;
442 [label="entropy = 0.918\nsamples = 3\nvalue = [2, 1]"] ;
441 -> 442 ;
443 [label="entropy = 0.0\nsamples = 2\nvalue = [2, 0]"] ;
441 -> 443 ;
444 [label="RowMean <= 2.844\nentropy = 0.843\nsamples = 9700\nvalue = [2628, 7072]"] ;
428 -> 444 ;
445 [label="ElectronegativityMean <= 2.273\nentropy = 0.503\nsamples = 1028\nvalue = [114, 914]"] ;
444 -> 445 ;
446 [label="AtomicRadiusMean <= 1.009\nentropy = 0.998\nsamples = 17\nvalue = [9, 8]"] ;
445 -> 446 ;
447 [label="entropy = 0.961\nsamples = 13\nvalue = [5, 8]"] ;
446 -> 447 ;
448 [label="entropy = 0.0\nsamples = 4\nvalue = [4, 0]"] ;
446 -> 448 ;
449 [label="ElectronegativityMean <= 2.666\nentropy = 0.481\nsamples = 1011\nvalue = [105, 906]"] ;
445 -> 449 ;
450 [label="entropy = 0.326\nsamples = 403\nvalue = [24, 379]"] ;
449 -> 450 ;
451 [label="entropy = 0.566\nsamples = 608\nvalue = [81, 527]"] ;
449 -> 451 ;
452 [label="ColumnMean <= 15.197\nentropy = 0.869\nsamples = 8672\nvalue = [2514, 6158]"] ;
444 -> 452 ;
453 [label="ElectronegativityMin <= 0.965\nentropy = 0.903\nsamples = 7134\nvalue = [2271, 4863]"] ;
452 -> 453 ;
454 [label="entropy = 0.606\nsamples = 1072\nvalue = [159, 913]"] ;
453 -> 454 ;
455 [label="entropy = 0.933\nsamples = 6062\nvalue = [2112, 3950]"] ;
453 -> 455 ;
456 [label="ElectronegativityMean <= 2.847\nentropy = 0.629\nsamples = 1538\nvalue = [243, 1295]"] ;
452 -> 456 ;
457 [label="entropy = 0.502\nsamples = 922\nvalue = [102, 820]"] ;
456 -> 457 ;
458 [label="entropy = 0.776\nsamples = 616\nvalue = [141, 475]"] ;
456 -> 458 ;
}