digraph Tree {
node [shape=box] ;
0 [label="ElectronegativityMean <= 2.031\nentropy = 0.995\nsamples = 99473\nvalue = [45418, 54055]"] ;
1 [label="ColumnMin <= 2.5\nentropy = 0.671\nsamples = 31115\nvalue = [25648, 5467]"] ;
0 -> 1 [labeldistance=2.5, labelangle=45, headlabel="True"] ;
2 [label="ElectronegativityMax <= 5.09\nentropy = 0.922\nsamples = 6870\nvalue = [4557, 2313]"] ;
1 -> 2 ;
3 [label="AtomicRadiusMin <= 1.2\nentropy = 0.756\nsamples = 4528\nvalue = [3543, 985]"] ;
2 -> 3 ;
4 [label="ColumnMax <= 14.5\nentropy = 0.984\nsamples = 933\nvalue = [535, 398]"] ;
3 -> 4 ;
5 [label="ElectronegativityMin <= 1.05\nentropy = 0.802\nsamples = 332\nvalue = [251, 81]"] ;
4 -> 5 ;
6 [label="AtomicRadiusMin <= 0.775\nentropy = 1.0\nsamples = 127\nvalue = [65, 62]"] ;
5 -> 6 ;
7 [label="ColumnMean <= 2.417\nentropy = 0.665\nsamples = 52\nvalue = [9, 43]"] ;
6 -> 7 ;
8 [label="entropy = 0.0\nsamples = 15\nvalue = [0, 15]"] ;
7 -> 8 ;
9 [label="entropy = 0.8\nsamples = 37\nvalue = [9, 28]"] ;
7 -> 9 ;
10 [label="AtomicRadiusMean <= 1.619\nentropy = 0.817\nsamples = 75\nvalue = [56, 19]"] ;
6 -> 10 ;
11 [label="entropy = 0.625\nsamples = 64\nvalue = [54, 10]"] ;
10 -> 11 ;
12 [label="entropy = 0.684\nsamples = 11\nvalue = [2, 9]"] ;
10 -> 12 ;
13 [label="RowMean <= 1.833\nentropy = 0.445\nsamples = 205\nvalue = [186, 19]"] ;
5 -> 13 ;
14 [label="AtomicWeightMin <= 1.512\nentropy = 0.764\nsamples = 9\nvalue = [2, 7]"] ;
13 -> 14 ;
15 [label="entropy = 0.0\nsamples = 1\nvalue = [1, 0]"] ;
14 -> 15 ;
16 [label="entropy = 0.544\nsamples = 8\nvalue = [1, 7]"] ;
14 -> 16 ;
17 [label="AtomicRadiusMax <= 1.575\nentropy = 0.332\nsamples = 196\nvalue = [184, 12]"] ;
13 -> 17 ;
18 [label="entropy = 0.0\nsamples = 89\nvalue = [89, 0]"] ;
17 -> 18 ;
19 [label="entropy = 0.506\nsamples = 107\nvalue = [95, 12]"] ;
17 -> 19 ;
20 [label="ElectronegativityMax <= 3.55\nentropy = 0.998\nsamples = 601\nvalue = [284, 317]"] ;
4 -> 20 ;
21 [label="ColumnMax <= 15.5\nentropy = 0.956\nsamples = 451\nvalue = [170, 281]"] ;
20 -> 21 ;
22 [label="ColumnMean <= 7.292\nentropy = 0.997\nsamples = 259\nvalue = [138, 121]"] ;
21 -> 22 ;
23 [label="entropy = 0.893\nsamples = 84\nvalue = [26, 58]"] ;
22 -> 23 ;
24 [label="entropy = 0.943\nsamples = 175\nvalue = [112, 63]"] ;
22 -> 24 ;
25 [label="ColumnMean <= 6.167\nentropy = 0.65\nsamples = 192\nvalue = [32, 160]"] ;
21 -> 25 ;
26 [label="entropy = 0.274\nsamples = 85\nvalue = [4, 81]"] ;
25 -> 26 ;
27 [label="entropy = 0.829\nsamples = 107\nvalue = [28, 79]"] ;
25 -> 27 ;
28 [label="ColumnMax <= 29.0\nentropy = 0.795\nsamples = 150\nvalue = [114, 36]"] ;
20 -> 28 ;
29 [label="AtomicWeightMean <= 36.479\nentropy = 0.562\nsamples = 114\nvalue = [99, 15]"] ;
28 -> 29 ;
30 [label="entropy = 0.98\nsamples = 12\nvalue = [5, 7]"] ;
29 -> 30 ;
31 [label="entropy = 0.397\nsamples = 102\nvalue = [94, 8]"] ;
29 -> 31 ;
32 [label="ElectronegativityMin <= 1.75\nentropy = 0.98\nsamples = 36\nvalue = [15, 21]"] ;
28 -> 32 ;
33 [label="entropy = 0.881\nsamples = 30\nvalue = [9, 21]"] ;
32 -> 33 ;
34 [label="entropy = 0.0\nsamples = 6\nvalue = [6, 0]"] ;
32 -> 34 ;
35 [label="ColumnMax <= 9.5\nentropy = 0.642\nsamples = 3595\nvalue = [3008, 587]"] ;
3 -> 35 ;
36 [label="ElectronegativityMax <= 2.45\nentropy = 0.28\nsamples = 868\nvalue = [826, 42]"] ;
35 -> 36 ;
37 [label="ElectronegativityMean <= 0.979\nentropy = 0.422\nsamples = 432\nvalue = [395, 37]"] ;
36 -> 37 ;
38 [label="ElectronegativityMax <= 1.368\nentropy = 0.746\nsamples = 113\nvalue = [89, 24]"] ;
37 -> 38 ;
39 [label="entropy = 0.326\nsamples = 84\nvalue = [79, 5]"] ;
38 -> 39 ;
40 [label="entropy = 0.929\nsamples = 29\nvalue = [10, 19]"] ;
38 -> 40 ;
41 [label="ColumnMean <= 2.875\nentropy = 0.246\nsamples = 319\nvalue = [306, 13]"] ;
37 -> 41 ;
42 [label="entropy = 0.073\nsamples = 226\nvalue = [224, 2]"] ;
41 -> 42 ;
43 [label="entropy = 0.524\nsamples = 93\nvalue = [82, 11]"] ;
41 -> 43 ;
44 [label="ElectronegativityMean <= 1.573\nentropy = 0.09\nsamples = 436\nvalue = [431, 5]"] ;
36 -> 44 ;
45 [label="AtomicRadiusMax <= 3.05\nentropy = 0.06\nsamples = 434\nvalue = [431, 3]"] ;
44 -> 45 ;
46 [label="entropy = 0.201\nsamples = 64\nvalue = [62, 2]"] ;
45 -> 46 ;
47 [label="entropy = 0.027\nsamples = 370\nvalue = [369, 1]"] ;
45 -> 47 ;
48 [label="entropy = 0.0\nsamples = 2\nvalue = [0, 2]"] ;
44 -> 48 ;
49 [label="AtomicRadiusMean <= 1.789\nentropy = 0.722\nsamples = 2727\nvalue = [2182, 545]"] ;
35 -> 49 ;
50 [label="ColumnMax <= 29.0\nentropy = 0.659\nsamples = 2497\nvalue = [2071, 426]"] ;
49 -> 50 ;
51 [label="AtomicWeightMin <= 23.647\nentropy = 0.581\nsamples = 2185\nvalue = [1882, 303]"] ;
50 -> 51 ;
52 [label="entropy = 0.758\nsamples = 849\nvalue = [663, 186]"] ;
51 -> 52 ;
53 [label="entropy = 0.428\nsamples = 1336\nvalue = [1219, 117]"] ;
51 -> 53 ;
54 [label="ElectronegativityMax <= 4.39\nentropy = 0.967\nsamples = 312\nvalue = [189, 123]"] ;
50 -> 54 ;
55 [label="entropy = 0.998\nsamples = 231\nvalue = [109, 122]"] ;
54 -> 55 ;
56 [label="entropy = 0.096\nsamples = 81\nvalue = [80, 1]"] ;
54 -> 56 ;
57 [label="AtomicWeightMax <= 404.973\nentropy = 0.999\nsamples = 230\nvalue = [111, 119]"] ;
49 -> 57 ;
58 [label="ColumnMax <= 14.5\nentropy = 0.938\nsamples = 158\nvalue = [56, 102]"] ;
57 -> 58 ;
59 [label="entropy = 0.992\nsamples = 83\nvalue = [46, 37]"] ;
58 -> 59 ;
60 [label="entropy = 0.567\nsamples = 75\nvalue = [10, 65]"] ;
58 -> 60 ;
61 [label="RowMax <= 13.0\nentropy = 0.789\nsamples = 72\nvalue = [55, 17]"] ;
57 -> 61 ;
62 [label="entropy = 0.879\nsamples = 57\nvalue = [40, 17]"] ;
61 -> 62 ;
63 [label="entropy = 0.0\nsamples = 15\nvalue = [15, 0]"] ;
61 -> 63 ;
64 [label="ElectronegativityMean <= 1.786\nentropy = 0.987\nsamples = 2342\nvalue = [1014, 1328]"] ;
2 -> 64 ;
65 [label="RowMax <= 11.0\nentropy = 0.95\nsamples = 777\nvalue = [490, 287]"] ;
64 -> 65 ;
66 [label="ColumnMean <= 10.0\nentropy = 0.74\nsamples = 110\nvalue = [23, 87]"] ;
65 -> 66 ;
67 [label="ColumnMean <= 8.8\nentropy = 0.661\nsamples = 105\nvalue = [18, 87]"] ;
66 -> 67 ;
68 [label="AtomicRadiusMin <= 1.425\nentropy = 0.83\nsamples = 61\nvalue = [16, 45]"] ;
67 -> 68 ;
69 [label="entropy = 0.715\nsamples = 56\nvalue = [11, 45]"] ;
68 -> 69 ;
70 [label="entropy = 0.0\nsamples = 5\nvalue = [5, 0]"] ;
68 -> 70 ;
71 [label="ElectronegativityMean <= 1.783\nentropy = 0.267\nsamples = 44\nvalue = [2, 42]"] ;
67 -> 71 ;
72 [label="entropy = 0.0\nsamples = 42\nvalue = [0, 42]"] ;
71 -> 72 ;
73 [label="entropy = 0.0\nsamples = 2\nvalue = [2, 0]"] ;
71 -> 73 ;
74 [label="entropy = 0.0\nsamples = 5\nvalue = [5, 0]"] ;
66 -> 74 ;
75 [label="ColumnMax <= 44.5\nentropy = 0.881\nsamples = 667\nvalue = [467, 200]"] ;
65 -> 75 ;
76 [label="AtomicWeightMin <= 6.494\nentropy = 0.438\nsamples = 287\nvalue = [261, 26]"] ;
75 -> 76 ;
77 [label="RowMean <= 3.016\nentropy = 0.811\nsamples = 16\nvalue = [4, 12]"] ;
76 -> 77 ;
78 [label="entropy = 0.0\nsamples = 11\nvalue = [0, 11]"] ;
77 -> 78 ;
79 [label="entropy = 0.722\nsamples = 5\nvalue = [4, 1]"] ;
77 -> 79 ;
80 [label="RowMax <= 15.5\nentropy = 0.293\nsamples = 271\nvalue = [257, 14]"] ;
76 -> 80 ;
81 [label="entropy = 0.511\nsamples = 123\nvalue = [109, 14]"] ;
80 -> 81 ;
82 [label="entropy = 0.0\nsamples = 148\nvalue = [148, 0]"] ;
80 -> 82 ;
83 [label="AtomicRadiusMean <= 1.602\nentropy = 0.995\nsamples = 380\nvalue = [206, 174]"] ;
75 -> 83 ;
84 [label="AtomicRadiusMean <= 1.458\nentropy = 0.878\nsamples = 239\nvalue = [168, 71]"] ;
83 -> 84 ;
85 [label="entropy = 0.609\nsamples = 107\nvalue = [91, 16]"] ;
84 -> 85 ;
86 [label="entropy = 0.98\nsamples = 132\nvalue = [77, 55]"] ;
84 -> 86 ;
87 [label="AtomicWeightMean <= 160.508\nentropy = 0.841\nsamples = 141\nvalue = [38, 103]"] ;
83 -> 87 ;
88 [label="entropy = 0.78\nsamples = 134\nvalue = [31, 103]"] ;
87 -> 88 ;
89 [label="entropy = 0.0\nsamples = 7\nvalue = [7, 0]"] ;
87 -> 89 ;
90 [label="AtomicWeightMean <= 132.283\nentropy = 0.92\nsamples = 1565\nvalue = [524, 1041]"] ;
64 -> 90 ;
91 [label="ElectronegativityMax <= 7.645\nentropy = 0.901\nsamples = 1516\nvalue = [480, 1036]"] ;
90 -> 91 ;
92 [label="RowMax <= 8.5\nentropy = 0.991\nsamples = 491\nvalue = [218, 273]"] ;
91 -> 92 ;
93 [label="ColumnMean <= 9.1\nentropy = 0.948\nsamples = 366\nvalue = [134, 232]"] ;
92 -> 93 ;
94 [label="entropy = 0.815\nsamples = 190\nvalue = [48, 142]"] ;
93 -> 94 ;
95 [label="entropy = 1.0\nsamples = 176\nvalue = [86, 90]"] ;
93 -> 95 ;
96 [label="ElectronegativityMin <= 0.855\nentropy = 0.913\nsamples = 125\nvalue = [84, 41]"] ;
92 -> 96 ;
97 [label="entropy = 0.773\nsamples = 22\nvalue = [5, 17]"] ;
96 -> 97 ;
98 [label="entropy = 0.783\nsamples = 103\nvalue = [79, 24]"] ;
96 -> 98 ;
99 [label="RowMax <= 21.5\nentropy = 0.82\nsamples = 1025\nvalue = [262, 763]"] ;
91 -> 99 ;
100 [label="ElectronegativityMax <= 10.125\nentropy = 0.698\nsamples = 801\nvalue = [151, 650]"] ;
99 -> 100 ;
101 [label="entropy = 0.885\nsamples = 300\nvalue = [91, 209]"] ;
100 -> 101 ;
102 [label="entropy = 0.529\nsamples = 501\nvalue = [60, 441]"] ;
100 -> 102 ;
103 [label="AtomicRadiusMean <= 1.606\nentropy = 1.0\nsamples = 224\nvalue = [111, 113]"] ;
99 -> 103 ;
104 [label="entropy = 0.902\nsamples = 154\nvalue = [105, 49]"] ;
103 -> 104 ;
105 [label="entropy = 0.422\nsamples = 70\nvalue = [6, 64]"] ;
103 -> 105 ;
106 [label="AtomicWeightMin <= 110.263\nentropy = 0.475\nsamples = 49\nvalue = [44, 5]"] ;
90 -> 106 ;
107 [label="entropy = 0.0\nsamples = 32\nvalue = [32, 0]"] ;
106 -> 107 ;
108 [label="ElectronegativityMax <= 7.8\nentropy = 0.874\nsamples = 17\nvalue = [12, 5]"] ;
106 -> 108 ;
109 [label="entropy = 0.0\nsamples = 7\nvalue = [7, 0]"] ;
108 -> 109 ;
110 [label="ElectronegativityMean <= 1.97\nentropy = 1.0\nsamples = 10\nvalue = [5, 5]"] ;
108 -> 110 ;
111 [label="entropy = 0.0\nsamples = 3\nvalue = [0, 3]"] ;
110 -> 111 ;
112 [label="entropy = 0.863\nsamples = 7\nvalue = [5, 2]"] ;
110 -> 112 ;
113 [label="ColumnMax <= 44.5\nentropy = 0.558\nsamples = 24245\nvalue = [21091, 3154]"] ;
1 -> 113 ;
114 [label="RowMean <= 2.914\nentropy = 0.414\nsamples = 16352\nvalue = [14989, 1363]"] ;
113 -> 114 ;
115 [label="ElectronegativityMean <= 1.666\nentropy = 0.961\nsamples = 432\nvalue = [266, 166]"] ;
114 -> 115 ;
116 [label="ColumnMean <= 4.375\nentropy = 0.65\nsamples = 156\nvalue = [130, 26]"] ;
115 -> 116 ;
117 [label="AtomicWeightMean <= 29.846\nentropy = 0.177\nsamples = 113\nvalue = [110, 3]"] ;
116 -> 117 ;
118 [label="entropy = 0.0\nsamples = 95\nvalue = [95, 0]"] ;
117 -> 118 ;
119 [label="ColumnMean <= 2.825\nentropy = 0.65\nsamples = 18\nvalue = [15, 3]"] ;
117 -> 119 ;
120 [label="entropy = 0.811\nsamples = 4\nvalue = [1, 3]"] ;
119 -> 120 ;
121 [label="entropy = 0.0\nsamples = 14\nvalue = [14, 0]"] ;
119 -> 121 ;
122 [label="ColumnMax <= 14.5\nentropy = 0.996\nsamples = 43\nvalue = [20, 23]"] ;
116 -> 122 ;
123 [label="entropy = 0.0\nsamples = 6\nvalue = [6, 0]"] ;
122 -> 123 ;
124 [label="ColumnMax <= 35.5\nentropy = 0.957\nsamples = 37\nvalue = [14, 23]"] ;
122 -> 124 ;
125 [label="entropy = 0.885\nsamples = 33\nvalue = [10, 23]"] ;
124 -> 125 ;
126 [label="entropy = 0.0\nsamples = 4\nvalue = [4, 0]"] ;
124 -> 126 ;
127 [label="AtomicRadiusMax <= 1.725\nentropy = 1.0\nsamples = 276\nvalue = [136, 140]"] ;
115 -> 127 ;
128 [label="entropy = 0.0\nsamples = 20\nvalue = [20, 0]"] ;
127 -> 128 ;
129 [label="AtomicWeightMean <= 27.784\nentropy = 0.994\nsamples = 256\nvalue = [116, 140]"] ;
127 -> 129 ;
130 [label="ColumnMean <= 7.183\nentropy = 0.934\nsamples = 157\nvalue = [55, 102]"] ;
129 -> 130 ;
131 [label="entropy = 0.985\nsamples = 117\nvalue = [50, 67]"] ;
130 -> 131 ;
132 [label="entropy = 0.544\nsamples = 40\nvalue = [5, 35]"] ;
130 -> 132 ;
133 [label="ColumnMean <= 2.598\nentropy = 0.961\nsamples = 99\nvalue = [61, 38]"] ;
129 -> 133 ;
134 [label="entropy = 0.992\nsamples = 56\nvalue = [25, 31]"] ;
133 -> 134 ;
135 [label="entropy = 0.641\nsamples = 43\nvalue = [36, 7]"] ;
133 -> 135 ;
136 [label="ColumnMean <= 11.183\nentropy = 0.385\nsamples = 15920\nvalue = [14723, 1197]"] ;
114 -> 136 ;
137 [label="ElectronegativityMin <= 1.64\nentropy = 0.342\nsamples = 14564\nvalue = [13636, 928]"] ;
136 -> 137 ;
138 [label="ColumnMean <= 4.917\nentropy = 0.265\nsamples = 8854\nvalue = [8456, 398]"] ;
137 -> 138 ;
139 [label="AtomicRadiusMax <= 1.775\nentropy = 0.032\nsamples = 1217\nvalue = [1213, 4]"] ;
138 -> 139 ;
140 [label="entropy = 0.211\nsamples = 90\nvalue = [87, 3]"] ;
139 -> 140 ;
141 [label="entropy = 0.01\nsamples = 1127\nvalue = [1126, 1]"] ;
139 -> 141 ;
142 [label="ElectronegativityMin <= 1.177\nentropy = 0.293\nsamples = 7637\nvalue = [7243, 394]"] ;
138 -> 142 ;
143 [label="entropy = 0.173\nsamples = 1895\nvalue = [1846, 49]"] ;
142 -> 143 ;
144 [label="entropy = 0.328\nsamples = 5742\nvalue = [5397, 345]"] ;
142 -> 144 ;
145 [label="ColumnMin <= 5.5\nentropy = 0.446\nsamples = 5710\nvalue = [5180, 530]"] ;
137 -> 145 ;
146 [label="AtomicWeightMin <= 17.012\nentropy = 0.895\nsamples = 812\nvalue = [559, 253]"] ;
145 -> 146 ;
147 [label="entropy = 0.602\nsamples = 68\nvalue = [10, 58]"] ;
146 -> 147 ;
148 [label="entropy = 0.83\nsamples = 744\nvalue = [549, 195]"] ;
146 -> 148 ;
149 [label="AtomicRadiusMin <= 0.625\nentropy = 0.314\nsamples = 4898\nvalue = [4621, 277]"] ;
145 -> 149 ;
150 [label="entropy = 0.851\nsamples = 83\nvalue = [60, 23]"] ;
149 -> 150 ;
151 [label="entropy = 0.298\nsamples = 4815\nvalue = [4561, 254]"] ;
149 -> 151 ;
152 [label="ColumnMax <= 32.5\nentropy = 0.719\nsamples = 1356\nvalue = [1087, 269]"] ;
136 -> 152 ;
153 [label="ElectronegativityMin <= 1.275\nentropy = 0.849\nsamples = 897\nvalue = [650, 247]"] ;
152 -> 153 ;
154 [label="ElectronegativityMean <= 1.724\nentropy = 0.98\nsamples = 170\nvalue = [71, 99]"] ;
153 -> 154 ;
155 [label="entropy = 0.0\nsamples = 16\nvalue = [16, 0]"] ;
154 -> 155 ;
156 [label="entropy = 0.94\nsamples = 154\nvalue = [55, 99]"] ;
154 -> 156 ;
157 [label="ColumnMean <= 13.292\nentropy = 0.729\nsamples = 727\nvalue = [579, 148]"] ;
153 -> 157 ;
158 [label="entropy = 0.431\nsamples = 452\nvalue = [412, 40]"] ;
157 -> 158 ;
159 [label="entropy = 0.967\nsamples = 275\nvalue = [167, 108]"] ;
157 -> 159 ;
160 [label="ElectronegativityMin <= 4.28\nentropy = 0.278\nsamples = 459\nvalue = [437, 22]"] ;
152 -> 160 ;
161 [label="ColumnMin <= 8.5\nentropy = 0.17\nsamples = 434\nvalue = [423, 11]"] ;
160 -> 161 ;
162 [label="entropy = 0.353\nsamples = 105\nvalue = [98, 7]"] ;
161 -> 162 ;
163 [label="entropy = 0.095\nsamples = 329\nvalue = [325, 4]"] ;
161 -> 163 ;
164 [label="ElectronegativityMin <= 4.48\nentropy = 0.99\nsamples = 25\nvalue = [14, 11]"] ;
160 -> 164 ;
165 [label="entropy = 0.982\nsamples = 19\nvalue = [8, 11]"] ;
164 -> 165 ;
166 [label="entropy = 0.0\nsamples = 6\nvalue = [6, 0]"] ;
164 -> 166 ;
167 [label="ElectronegativityMean <= 1.948\nentropy = 0.773\nsamples = 7893\nvalue = [6102, 1791]"] ;
113 -> 167 ;
168 [label="AtomicRadiusMean <= 1.493\nentropy = 0.687\nsamples = 6538\nvalue = [5339, 1199]"] ;
167 -> 168 ;
169 [label="RowMean <= 2.884\nentropy = 0.561\nsamples = 4864\nvalue = [4226, 638]"] ;
168 -> 169 ;
170 [label="AtomicRadiusMean <= 1.117\nentropy = 0.998\nsamples = 312\nvalue = [165, 147]"] ;
169 -> 170 ;
171 [label="ColumnMean <= 9.428\nentropy = 0.414\nsamples = 108\nvalue = [99, 9]"] ;
170 -> 171 ;
172 [label="entropy = 0.949\nsamples = 19\nvalue = [12, 7]"] ;
171 -> 172 ;
173 [label="entropy = 0.155\nsamples = 89\nvalue = [87, 2]"] ;
171 -> 173 ;
174 [label="ElectronegativityMean <= 1.703\nentropy = 0.908\nsamples = 204\nvalue = [66, 138]"] ;
170 -> 174 ;
175 [label="entropy = 0.918\nsamples = 66\nvalue = [44, 22]"] ;
174 -> 175 ;
176 [label="entropy = 0.633\nsamples = 138\nvalue = [22, 116]"] ;
174 -> 176 ;
177 [label="ColumnMax <= 48.5\nentropy = 0.493\nsamples = 4552\nvalue = [4061, 491]"] ;
169 -> 177 ;
178 [label="RowMax <= 15.5\nentropy = 0.845\nsamples = 352\nvalue = [256, 96]"] ;
177 -> 178 ;
179 [label="entropy = 0.993\nsamples = 173\nvalue = [95, 78]"] ;
178 -> 179 ;
180 [label="entropy = 0.471\nsamples = 179\nvalue = [161, 18]"] ;
178 -> 180 ;
181 [label="ColumnMean <= 13.369\nentropy = 0.45\nsamples = 4200\nvalue = [3805, 395]"] ;
177 -> 181 ;
182 [label="entropy = 0.437\nsamples = 4172\nvalue = [3796, 376]"] ;
181 -> 182 ;
183 [label="entropy = 0.906\nsamples = 28\nvalue = [9, 19]"] ;
181 -> 183 ;
184 [label="AtomicWeightMax <= 414.349\nentropy = 0.92\nsamples = 1674\nvalue = [1113, 561]"] ;
168 -> 184 ;
185 [label="ElectronegativityMin <= 1.44\nentropy = 0.895\nsamples = 295\nvalue = [92, 203]"] ;
184 -> 185 ;
186 [label="ElectronegativityMean <= 1.896\nentropy = 0.754\nsamples = 60\nvalue = [47, 13]"] ;
185 -> 186 ;
187 [label="entropy = 0.327\nsamples = 50\nvalue = [47, 3]"] ;
186 -> 187 ;
188 [label="entropy = 0.0\nsamples = 10\nvalue = [0, 10]"] ;
186 -> 188 ;
189 [label="AtomicRadiusMin <= 1.7\nentropy = 0.705\nsamples = 235\nvalue = [45, 190]"] ;
185 -> 189 ;
190 [label="entropy = 0.454\nsamples = 168\nvalue = [16, 152]"] ;
189 -> 190 ;
191 [label="entropy = 0.987\nsamples = 67\nvalue = [29, 38]"] ;
189 -> 191 ;
192 [label="AtomicRadiusMax <= 184.35\nentropy = 0.826\nsamples = 1379\nvalue = [1021, 358]"] ;
184 -> 192 ;
193 [label="AtomicRadiusMean <= 1.774\nentropy = 0.789\nsamples = 1337\nvalue = [1021, 316]"] ;
192 -> 193 ;
194 [label="entropy = 0.722\nsamples = 1196\nvalue = [957, 239]"] ;
193 -> 194 ;
195 [label="entropy = 0.994\nsamples = 141\nvalue = [64, 77]"] ;
193 -> 195 ;
196 [label="entropy = 0.0\nsamples = 42\nvalue = [0, 42]"] ;
192 -> 196 ;
197 [label="ColumnMin <= 8.5\nentropy = 0.988\nsamples = 1355\nvalue = [763, 592]"] ;
167 -> 197 ;
198 [label="ColumnMean <= 8.211\nentropy = 0.994\nsamples = 785\nvalue = [358, 427]"] ;
197 -> 198 ;
199 [label="RowMean <= 4.318\nentropy = 0.665\nsamples = 156\nvalue = [27, 129]"] ;
198 -> 199 ;
200 [label="ColumnMax <= 46.5\nentropy = 0.501\nsamples = 145\nvalue = [16, 129]"] ;
199 -> 200 ;
201 [label="entropy = 0.811\nsamples = 8\nvalue = [6, 2]"] ;
200 -> 201 ;
202 [label="entropy = 0.377\nsamples = 137\nvalue = [10, 127]"] ;
200 -> 202 ;
203 [label="entropy = 0.0\nsamples = 11\nvalue = [11, 0]"] ;
199 -> 203 ;
204 [label="AtomicRadiusMean <= 1.316\nentropy = 0.998\nsamples = 629\nvalue = [331, 298]"] ;
198 -> 204 ;
205 [label="ColumnMean <= 12.515\nentropy = 0.853\nsamples = 230\nvalue = [166, 64]"] ;
204 -> 205 ;
206 [label="entropy = 0.75\nsamples = 205\nvalue = [161, 44]"] ;
205 -> 206 ;
207 [label="entropy = 0.722\nsamples = 25\nvalue = [5, 20]"] ;
205 -> 207 ;
208 [label="ColumnMean <= 10.724\nentropy = 0.978\nsamples = 399\nvalue = [165, 234]"] ;
204 -> 208 ;
209 [label="entropy = 0.978\nsamples = 162\nvalue = [95, 67]"] ;
208 -> 209 ;
210 [label="entropy = 0.876\nsamples = 237\nvalue = [70, 167]"] ;
208 -> 210 ;
211 [label="AtomicRadiusMin <= 2.15\nentropy = 0.868\nsamples = 570\nvalue = [405, 165]"] ;
197 -> 211 ;
212 [label="ColumnMax <= 124.0\nentropy = 0.986\nsamples = 216\nvalue = [123, 93]"] ;
211 -> 212 ;
213 [label="ElectronegativityMin <= 2.62\nentropy = 0.922\nsamples = 166\nvalue = [110, 56]"] ;
212 -> 213 ;
214 [label="entropy = 0.857\nsamples = 135\nvalue = [97, 38]"] ;
213 -> 214 ;
215 [label="entropy = 0.981\nsamples = 31\nvalue = [13, 18]"] ;
213 -> 215 ;
216 [label="AtomicWeightMax <= 1395.107\nentropy = 0.827\nsamples = 50\nvalue = [13, 37]"] ;
212 -> 216 ;
217 [label="entropy = 0.562\nsamples = 38\nvalue = [5, 33]"] ;
216 -> 217 ;
218 [label="entropy = 0.918\nsamples = 12\nvalue = [8, 4]"] ;
216 -> 218 ;
219 [label="ColumnMean <= 10.87\nentropy = 0.729\nsamples = 354\nvalue = [282, 72]"] ;
211 -> 219 ;
220 [label="AtomicWeightMean <= 33.169\nentropy = 0.571\nsamples = 237\nvalue = [205, 32]"] ;
219 -> 220 ;
221 [label="entropy = 0.971\nsamples = 25\nvalue = [10, 15]"] ;
220 -> 221 ;
222 [label="entropy = 0.403\nsamples = 212\nvalue = [195, 17]"] ;
220 -> 222 ;
223 [label="AtomicWeightMean <= 131.271\nentropy = 0.927\nsamples = 117\nvalue = [77, 40]"] ;
219 -> 223 ;
224 [label="entropy = 0.956\nsamples = 106\nvalue = [66, 40]"] ;
223 -> 224 ;
225 [label="entropy = 0.0\nsamples = 11\nvalue = [11, 0]"] ;
223 -> 225 ;
226 [label="AtomicRadiusMean <= 0.97\nentropy = 0.868\nsamples = 68358\nvalue = [19770, 48588]"] ;
0 -> 226 [labeldistance=2.5, labelangle=-45, headlabel="False"] ;
227 [label="RowMean <= 2.484\nentropy = 0.714\nsamples = 35646\nvalue = [6984, 28662]"] ;
226 -> 227 ;
228 [label="ColumnMean <= 12.908\nentropy = 0.532\nsamples = 15986\nvalue = [1931, 14055]"] ;
227 -> 228 ;
229 [label="ElectronegativityMin <= 1.845\nentropy = 0.391\nsamples = 9011\nvalue = [693, 8318]"] ;
228 -> 229 ;
230 [label="ElectronegativityMax <= 10.66\nentropy = 0.288\nsamples = 5191\nvalue = [261, 4930]"] ;
229 -> 230 ;
231 [label="AtomicRadiusMin <= 1.025\nentropy = 0.503\nsamples = 585\nvalue = [65, 520]"] ;
230 -> 231 ;
232 [label="ColumnMax <= 10.5\nentropy = 0.372\nsamples = 489\nvalue = [35, 454]"] ;
231 -> 232 ;
233 [label="entropy = 0.0\nsamples = 5\nvalue = [5, 0]"] ;
232 -> 233 ;
234 [label="entropy = 0.335\nsamples = 484\nvalue = [30, 454]"] ;
232 -> 234 ;
235 [label="ColumnMean <= 12.675\nentropy = 0.896\nsamples = 96\nvalue = [30, 66]"] ;
231 -> 235 ;
236 [label="entropy = 0.992\nsamples = 65\nvalue = [29, 36]"] ;
235 -> 236 ;
237 [label="entropy = 0.206\nsamples = 31\nvalue = [1, 30]"] ;
235 -> 237 ;
238 [label="AtomicRadiusMin <= 1.225\nentropy = 0.254\nsamples = 4606\nvalue = [196, 4410]"] ;
230 -> 238 ;
239 [label="ElectronegativityMean <= 2.846\nentropy = 0.178\nsamples = 2094\nvalue = [56, 2038]"] ;
238 -> 239 ;
240 [label="entropy = 0.146\nsamples = 1878\nvalue = [39, 1839]"] ;
239 -> 240 ;
241 [label="entropy = 0.398\nsamples = 216\nvalue = [17, 199]"] ;
239 -> 241 ;
242 [label="ColumnMean <= 12.185\nentropy = 0.31\nsamples = 2512\nvalue = [140, 2372]"] ;
238 -> 242 ;
243 [label="entropy = 0.252\nsamples = 1854\nvalue = [78, 1776]"] ;
242 -> 243 ;
244 [label="entropy = 0.45\nsamples = 658\nvalue = [62, 596]"] ;
242 -> 244 ;
245 [label="AtomicRadiusMean <= 0.858\nentropy = 0.509\nsamples = 3820\nvalue = [432, 3388]"] ;
229 -> 245 ;
246 [label="ColumnMean <= 4.787\nentropy = 0.35\nsamples = 2476\nvalue = [163, 2313]"] ;
245 -> 246 ;
247 [label="AtomicWeightMean <= 18.206\nentropy = 0.939\nsamples = 59\nvalue = [21, 38]"] ;
246 -> 247 ;
248 [label="entropy = 0.667\nsamples = 46\nvalue = [8, 38]"] ;
247 -> 248 ;
249 [label="entropy = 0.0\nsamples = 13\nvalue = [13, 0]"] ;
247 -> 249 ;
250 [label="AtomicRadiusMean <= 0.549\nentropy = 0.322\nsamples = 2417\nvalue = [142, 2275]"] ;
246 -> 250 ;
251 [label="entropy = 0.183\nsamples = 1044\nvalue = [29, 1015]"] ;
250 -> 251 ;
252 [label="entropy = 0.41\nsamples = 1373\nvalue = [113, 1260]"] ;
250 -> 252 ;
253 [label="ColumnMin <= 4.5\nentropy = 0.722\nsamples = 1344\nvalue = [269, 1075]"] ;
245 -> 253 ;
254 [label="AtomicWeightMean <= 20.652\nentropy = 0.629\nsamples = 899\nvalue = [142, 757]"] ;
253 -> 254 ;
255 [label="entropy = 0.483\nsamples = 373\nvalue = [39, 334]"] ;
254 -> 255 ;
256 [label="entropy = 0.713\nsamples = 526\nvalue = [103, 423]"] ;
254 -> 256 ;
257 [label="AtomicRadiusMax <= 12.3\nentropy = 0.863\nsamples = 445\nvalue = [127, 318]"] ;
253 -> 257 ;
258 [label="entropy = 0.987\nsamples = 238\nvalue = [103, 135]"] ;
257 -> 258 ;
259 [label="entropy = 0.518\nsamples = 207\nvalue = [24, 183]"] ;
257 -> 259 ;
260 [label="ElectronegativityMean <= 2.94\nentropy = 0.675\nsamples = 6975\nvalue = [1238, 5737]"] ;
228 -> 260 ;
261 [label="ElectronegativityMean <= 2.519\nentropy = 0.582\nsamples = 4094\nvalue = [569, 3525]"] ;
260 -> 261 ;
262 [label="AtomicRadiusMean <= 0.787\nentropy = 0.976\nsamples = 71\nvalue = [42, 29]"] ;
261 -> 262 ;
263 [label="AtomicWeightMin <= 68.104\nentropy = 0.276\nsamples = 21\nvalue = [20, 1]"] ;
262 -> 263 ;
264 [label="entropy = 0.0\nsamples = 20\nvalue = [20, 0]"] ;
263 -> 264 ;
265 [label="entropy = 0.0\nsamples = 1\nvalue = [0, 1]"] ;
263 -> 265 ;
266 [label="AtomicWeightMax <= 49.635\nentropy = 0.99\nsamples = 50\nvalue = [22, 28]"] ;
262 -> 266 ;
267 [label="entropy = 0.811\nsamples = 16\nvalue = [12, 4]"] ;
266 -> 267 ;
268 [label="entropy = 0.874\nsamples = 34\nvalue = [10, 24]"] ;
266 -> 268 ;
269 [label="ColumnMean <= 13.038\nentropy = 0.56\nsamples = 4023\nvalue = [527, 3496]"] ;
261 -> 269 ;
270 [label="AtomicWeightMean <= 17.808\nentropy = 0.866\nsamples = 257\nvalue = [74, 183]"] ;
269 -> 270 ;
271 [label="entropy = 0.0\nsamples = 25\nvalue = [0, 25]"] ;
270 -> 271 ;
272 [label="entropy = 0.903\nsamples = 232\nvalue = [74, 158]"] ;
270 -> 272 ;
273 [label="ColumnMean <= 15.317\nentropy = 0.53\nsamples = 3766\nvalue = [453, 3313]"] ;
269 -> 273 ;
274 [label="entropy = 0.553\nsamples = 3447\nvalue = [442, 3005]"] ;
273 -> 274 ;
275 [label="entropy = 0.216\nsamples = 319\nvalue = [11, 308]"] ;
273 -> 275 ;
276 [label="AtomicRadiusMax <= 26.75\nentropy = 0.782\nsamples = 2881\nvalue = [669, 2212]"] ;
260 -> 276 ;
277 [label="ColumnMean <= 14.451\nentropy = 0.773\nsamples = 2854\nvalue = [648, 2206]"] ;
276 -> 277 ;
278 [label="AtomicRadiusMean <= 0.688\nentropy = 0.626\nsamples = 779\nvalue = [122, 657]"] ;
277 -> 278 ;
279 [label="entropy = 0.158\nsamples = 87\nvalue = [2, 85]"] ;
278 -> 279 ;
280 [label="entropy = 0.665\nsamples = 692\nvalue = [120, 572]"] ;
278 -> 280 ;
281 [label="ElectronegativityMean <= 3.241\nentropy = 0.817\nsamples = 2075\nvalue = [526, 1549]"] ;
277 -> 281 ;
282 [label="entropy = 0.866\nsamples = 1454\nvalue = [419, 1035]"] ;
281 -> 282 ;
283 [label="entropy = 0.663\nsamples = 621\nvalue = [107, 514]"] ;
281 -> 283 ;
284 [label="RowMean <= 2.416\nentropy = 0.764\nsamples = 27\nvalue = [21, 6]"] ;
276 -> 284 ;
285 [label="entropy = 0.0\nsamples = 18\nvalue = [18, 0]"] ;
284 -> 285 ;
286 [label="AtomicRadiusMin <= 1.375\nentropy = 0.918\nsamples = 9\nvalue = [3, 6]"] ;
284 -> 286 ;
287 [label="entropy = 0.0\nsamples = 3\nvalue = [3, 0]"] ;
286 -> 287 ;
288 [label="entropy = 0.0\nsamples = 6\nvalue = [0, 6]"] ;
286 -> 288 ;
289 [label="ColumnMin <= 6.5\nentropy = 0.822\nsamples = 19660\nvalue = [5053, 14607]"] ;
227 -> 289 ;
290 [label="ColumnMean <= 12.782\nentropy = 0.746\nsamples = 11757\nvalue = [2495, 9262]"] ;
289 -> 290 ;
291 [label="AtomicRadiusMin <= 1.275\nentropy = 0.853\nsamples = 5099\nvalue = [1418, 3681]"] ;
290 -> 291 ;
292 [label="ElectronegativityMean <= 2.257\nentropy = 0.627\nsamples = 1026\nvalue = [161, 865]"] ;
291 -> 292 ;
293 [label="ElectronegativityMin <= 1.27\nentropy = 0.764\nsamples = 18\nvalue = [14, 4]"] ;
292 -> 293 ;
294 [label="entropy = 0.0\nsamples = 3\nvalue = [0, 3]"] ;
293 -> 294 ;
295 [label="entropy = 0.353\nsamples = 15\nvalue = [14, 1]"] ;
293 -> 295 ;
296 [label="AtomicRadiusMax <= 1.975\nentropy = 0.599\nsamples = 1008\nvalue = [147, 861]"] ;
292 -> 296 ;
297 [label="entropy = 0.776\nsamples = 323\nvalue = [74, 249]"] ;
296 -> 297 ;
298 [label="entropy = 0.489\nsamples = 685\nvalue = [73, 612]"] ;
296 -> 298 ;
299 [label="ElectronegativityMean <= 2.737\nentropy = 0.892\nsamples = 4073\nvalue = [1257, 2816]"] ;
291 -> 299 ;
300 [label="AtomicWeightMean <= 25.425\nentropy = 0.938\nsamples = 2451\nvalue = [870, 1581]"] ;
299 -> 300 ;
301 [label="entropy = 0.763\nsamples = 465\nvalue = [103, 362]"] ;
300 -> 301 ;
302 [label="entropy = 0.962\nsamples = 1986\nvalue = [767, 1219]"] ;
300 -> 302 ;
303 [label="AtomicRadiusMin <= 1.475\nentropy = 0.793\nsamples = 1622\nvalue = [387, 1235]"] ;
299 -> 303 ;
304 [label="entropy = 0.679\nsamples = 779\nvalue = [140, 639]"] ;
303 -> 304 ;
305 [label="entropy = 0.873\nsamples = 843\nvalue = [247, 596]"] ;
303 -> 305 ;
306 [label="ElectronegativityMin <= 0.99\nentropy = 0.639\nsamples = 6658\nvalue = [1077, 5581]"] ;
290 -> 306 ;
307 [label="ElectronegativityMean <= 2.887\nentropy = 0.511\nsamples = 2090\nvalue = [238, 1852]"] ;
306 -> 307 ;
308 [label="AtomicRadiusMax <= 14.625\nentropy = 0.387\nsamples = 1058\nvalue = [80, 978]"] ;
307 -> 308 ;
309 [label="entropy = 0.363\nsamples = 1024\nvalue = [71, 953]"] ;
308 -> 309 ;
310 [label="entropy = 0.834\nsamples = 34\nvalue = [9, 25]"] ;
308 -> 310 ;
311 [label="ColumnMean <= 14.447\nentropy = 0.618\nsamples = 1032\nvalue = [158, 874]"] ;
307 -> 311 ;
312 [label="entropy = 0.676\nsamples = 808\nvalue = [144, 664]"] ;
311 -> 312 ;
313 [label="entropy = 0.337\nsamples = 224\nvalue = [14, 210]"] ;
311 -> 313 ;
314 [label="AtomicRadiusMax <= 12.075\nentropy = 0.688\nsamples = 4568\nvalue = [839, 3729]"] ;
306 -> 314 ;
315 [label="ElectronegativityMin <= 1.615\nentropy = 0.662\nsamples = 4120\nvalue = [708, 3412]"] ;
314 -> 315 ;
316 [label="entropy = 0.728\nsamples = 2332\nvalue = [474, 1858]"] ;
315 -> 316 ;
317 [label="entropy = 0.56\nsamples = 1788\nvalue = [234, 1554]"] ;
315 -> 317 ;
318 [label="AtomicRadiusMean <= 0.826\nentropy = 0.872\nsamples = 448\nvalue = [131, 317]"] ;
314 -> 318 ;
319 [label="entropy = 0.998\nsamples = 196\nvalue = [93, 103]"] ;
318 -> 319 ;
320 [label="entropy = 0.612\nsamples = 252\nvalue = [38, 214]"] ;
318 -> 320 ;
321 [label="ColumnMean <= 15.738\nentropy = 0.908\nsamples = 7903\nvalue = [2558, 5345]"] ;
289 -> 321 ;
322 [label="ColumnMean <= 13.605\nentropy = 0.926\nsamples = 7323\nvalue = [2498, 4825]"] ;
321 -> 322 ;
323 [label="AtomicWeightMean <= 28.692\nentropy = 0.977\nsamples = 2717\nvalue = [1117, 1600]"] ;
322 -> 323 ;
324 [label="AtomicRadiusMean <= 0.869\nentropy = 0.799\nsamples = 578\nvalue = [140, 438]"] ;
323 -> 324 ;
325 [label="entropy = 0.625\nsamples = 314\nvalue = [49, 265]"] ;
324 -> 325 ;
326 [label="entropy = 0.929\nsamples = 264\nvalue = [91, 173]"] ;
324 -> 326 ;
327 [label="RowMean <= 2.696\nentropy = 0.995\nsamples = 2139\nvalue = [977, 1162]"] ;
323 -> 327 ;
328 [label="entropy = 0.867\nsamples = 572\nvalue = [407, 165]"] ;
327 -> 328 ;
329 [label="entropy = 0.946\nsamples = 1567\nvalue = [570, 997]"] ;
327 -> 329 ;
330 [label="ElectronegativityMean <= 2.723\nentropy = 0.881\nsamples = 4606\nvalue = [1381, 3225]"] ;
322 -> 330 ;
331 [label="AtomicRadiusMin <= 2.4\nentropy = 0.634\nsamples = 344\nvalue = [55, 289]"] ;
330 -> 331 ;
332 [label="entropy = 0.534\nsamples = 296\nvalue = [36, 260]"] ;
331 -> 332 ;
333 [label="entropy = 0.968\nsamples = 48\nvalue = [19, 29]"] ;
331 -> 333 ;
334 [label="ElectronegativityMean <= 3.1\nentropy = 0.894\nsamples = 4262\nvalue = [1326, 2936]"] ;
330 -> 334 ;
335 [label="entropy = 0.916\nsamples = 3491\nvalue = [1155, 2336]"] ;
334 -> 335 ;
336 [label="entropy = 0.763\nsamples = 771\nvalue = [171, 600]"] ;
334 -> 336 ;
337 [label="ElectronegativityMax <= 3.71\nentropy = 0.48\nsamples = 580\nvalue = [60, 520]"] ;
321 -> 337 ;
338 [label="AtomicWeightMean <= 45.37\nentropy = 0.961\nsamples = 13\nvalue = [8, 5]"] ;
337 -> 338 ;
339 [label="ElectronegativityMin <= 3.0\nentropy = 0.954\nsamples = 8\nvalue = [3, 5]"] ;
338 -> 339 ;
340 [label="entropy = 0.0\nsamples = 4\nvalue = [0, 4]"] ;
339 -> 340 ;
341 [label="entropy = 0.811\nsamples = 4\nvalue = [3, 1]"] ;
339 -> 341 ;
342 [label="entropy = 0.0\nsamples = 5\nvalue = [5, 0]"] ;
338 -> 342 ;
343 [label="AtomicWeightMean <= 64.407\nentropy = 0.442\nsamples = 567\nvalue = [52, 515]"] ;
337 -> 343 ;
344 [label="AtomicWeightMax <= 609.017\nentropy = 0.482\nsamples = 500\nvalue = [52, 448]"] ;
343 -> 344 ;
345 [label="entropy = 0.51\nsamples = 458\nvalue = [52, 406]"] ;
344 -> 345 ;
346 [label="entropy = 0.0\nsamples = 42\nvalue = [0, 42]"] ;
344 -> 346 ;
347 [label="entropy = 0.0\nsamples = 67\nvalue = [0, 67]"] ;
343 -> 347 ;
348 [label="ColumnMax <= 31.0\nentropy = 0.965\nsamples = 32712\nvalue = [12786, 19926]"] ;
226 -> 348 ;
349 [label="ColumnMean <= 11.45\nentropy = 0.952\nsamples = 3483\nvalue = [2186, 1297]"] ;
348 -> 349 ;
350 [label="AtomicRadiusMin <= 0.625\nentropy = 0.725\nsamples = 1859\nvalue = [1484, 375]"] ;
349 -> 350 ;
351 [label="ColumnMax <= 28.5\nentropy = 0.98\nsamples = 302\nvalue = [126, 176]"] ;
350 -> 351 ;
352 [label="ColumnMin <= 2.5\nentropy = 0.994\nsamples = 222\nvalue = [121, 101]"] ;
351 -> 352 ;
353 [label="ColumnMean <= 9.417\nentropy = 0.849\nsamples = 109\nvalue = [30, 79]"] ;
352 -> 353 ;
354 [label="entropy = 0.608\nsamples = 87\nvalue = [13, 74]"] ;
353 -> 354 ;
355 [label="entropy = 0.773\nsamples = 22\nvalue = [17, 5]"] ;
353 -> 355 ;
356 [label="ColumnMin <= 7.0\nentropy = 0.711\nsamples = 113\nvalue = [91, 22]"] ;
352 -> 356 ;
357 [label="entropy = 0.816\nsamples = 87\nvalue = [65, 22]"] ;
356 -> 357 ;
358 [label="entropy = 0.0\nsamples = 26\nvalue = [26, 0]"] ;
356 -> 358 ;
359 [label="AtomicRadiusMax <= 4.025\nentropy = 0.337\nsamples = 80\nvalue = [5, 75]"] ;
351 -> 359 ;
360 [label="entropy = 0.0\nsamples = 75\nvalue = [0, 75]"] ;
359 -> 360 ;
361 [label="entropy = 0.0\nsamples = 5\nvalue = [5, 0]"] ;
359 -> 361 ;
362 [label="ColumnMin <= 2.5\nentropy = 0.551\nsamples = 1557\nvalue = [1358, 199]"] ;
350 -> 362 ;
363 [label="ElectronegativityMean <= 2.291\nentropy = 0.996\nsamples = 233\nvalue = [125, 108]"] ;
362 -> 363 ;
364 [label="AtomicWeightMax <= 184.327\nentropy = 0.995\nsamples = 190\nvalue = [87, 103]"] ;
363 -> 364 ;
365 [label="entropy = 0.942\nsamples = 128\nvalue = [46, 82]"] ;
364 -> 365 ;
366 [label="entropy = 0.924\nsamples = 62\nvalue = [41, 21]"] ;
364 -> 366 ;
367 [label="AtomicRadiusMean <= 1.156\nentropy = 0.519\nsamples = 43\nvalue = [38, 5]"] ;
363 -> 367 ;
368 [label="entropy = 0.31\nsamples = 36\nvalue = [34, 2]"] ;
367 -> 368 ;
369 [label="entropy = 0.985\nsamples = 7\nvalue = [4, 3]"] ;
367 -> 369 ;
370 [label="AtomicRadiusMax <= 4.025\nentropy = 0.361\nsamples = 1324\nvalue = [1233, 91]"] ;
362 -> 370 ;
371 [label="AtomicRadiusMax <= 2.95\nentropy = 0.418\nsamples = 1016\nvalue = [930, 86]"] ;
370 -> 371 ;
372 [label="entropy = 0.354\nsamples = 929\nvalue = [867, 62]"] ;
371 -> 372 ;
373 [label="entropy = 0.85\nsamples = 87\nvalue = [63, 24]"] ;
371 -> 373 ;
374 [label="AtomicRadiusMin <= 1.275\nentropy = 0.12\nsamples = 308\nvalue = [303, 5]"] ;
370 -> 374 ;
375 [label="entropy = 0.241\nsamples = 126\nvalue = [121, 5]"] ;
374 -> 375 ;
376 [label="entropy = 0.0\nsamples = 182\nvalue = [182, 0]"] ;
374 -> 376 ;
377 [label="ColumnMax <= 15.5\nentropy = 0.987\nsamples = 1624\nvalue = [702, 922]"] ;
349 -> 377 ;
378 [label="ColumnMean <= 13.833\nentropy = 0.679\nsamples = 256\nvalue = [210, 46]"] ;
377 -> 378 ;
379 [label="ElectronegativityMean <= 2.223\nentropy = 0.234\nsamples = 157\nvalue = [151, 6]"] ;
378 -> 379 ;
380 [label="ElectronegativityMean <= 2.202\nentropy = 0.422\nsamples = 70\nvalue = [64, 6]"] ;
379 -> 380 ;
381 [label="entropy = 0.267\nsamples = 66\nvalue = [63, 3]"] ;
380 -> 381 ;
382 [label="entropy = 0.811\nsamples = 4\nvalue = [1, 3]"] ;
380 -> 382 ;
383 [label="entropy = 0.0\nsamples = 87\nvalue = [87, 0]"] ;
379 -> 383 ;
384 [label="AtomicRadiusMean <= 1.137\nentropy = 0.973\nsamples = 99\nvalue = [59, 40]"] ;
378 -> 384 ;
385 [label="ElectronegativityMin <= 1.985\nentropy = 0.974\nsamples = 64\nvalue = [26, 38]"] ;
384 -> 385 ;
386 [label="entropy = 0.998\nsamples = 42\nvalue = [22, 20]"] ;
385 -> 386 ;
387 [label="entropy = 0.684\nsamples = 22\nvalue = [4, 18]"] ;
385 -> 387 ;
388 [label="AtomicWeightMax <= 208.09\nentropy = 0.316\nsamples = 35\nvalue = [33, 2]"] ;
384 -> 388 ;
389 [label="entropy = 0.191\nsamples = 34\nvalue = [33, 1]"] ;
388 -> 389 ;
390 [label="entropy = 0.0\nsamples = 1\nvalue = [0, 1]"] ;
388 -> 390 ;
391 [label="AtomicRadiusMin <= 1.125\nentropy = 0.942\nsamples = 1368\nvalue = [492, 876]"] ;
377 -> 391 ;
392 [label="ElectronegativityMin <= 1.82\nentropy = 0.816\nsamples = 823\nvalue = [208, 615]"] ;
391 -> 392 ;
393 [label="AtomicWeightMax <= 234.519\nentropy = 0.664\nsamples = 451\nvalue = [78, 373]"] ;
392 -> 393 ;
394 [label="entropy = 0.615\nsamples = 440\nvalue = [67, 373]"] ;
393 -> 394 ;
395 [label="entropy = 0.0\nsamples = 11\nvalue = [11, 0]"] ;
393 -> 395 ;
396 [label="ColumnMean <= 12.45\nentropy = 0.934\nsamples = 372\nvalue = [130, 242]"] ;
392 -> 396 ;
397 [label="entropy = 0.779\nsamples = 39\nvalue = [30, 9]"] ;
396 -> 397 ;
398 [label="entropy = 0.882\nsamples = 333\nvalue = [100, 233]"] ;
396 -> 398 ;
399 [label="ElectronegativityMin <= 1.43\nentropy = 0.999\nsamples = 545\nvalue = [284, 261]"] ;
391 -> 399 ;
400 [label="ColumnMin <= 2.5\nentropy = 0.342\nsamples = 47\nvalue = [3, 44]"] ;
399 -> 400 ;
401 [label="entropy = 0.516\nsamples = 26\nvalue = [3, 23]"] ;
400 -> 401 ;
402 [label="entropy = 0.0\nsamples = 21\nvalue = [0, 21]"] ;
400 -> 402 ;
403 [label="ColumnMean <= 12.633\nentropy = 0.988\nsamples = 498\nvalue = [281, 217]"] ;
399 -> 403 ;
404 [label="entropy = 0.638\nsamples = 130\nvalue = [109, 21]"] ;
403 -> 404 ;
405 [label="entropy = 0.997\nsamples = 368\nvalue = [172, 196]"] ;
403 -> 405 ;
406 [label="ColumnMean <= 12.651\nentropy = 0.945\nsamples = 29229\nvalue = [10600, 18629]"] ;
348 -> 406 ;
407 [label="RowMean <= 3.011\nentropy = 0.972\nsamples = 21045\nvalue = [8467, 12578]"] ;
406 -> 407 ;
408 [label="AtomicWeightMean <= 20.47\nentropy = 0.894\nsamples = 8390\nvalue = [2604, 5786]"] ;
407 -> 408 ;
409 [label="AtomicWeightMax <= 48.304\nentropy = 0.523\nsamples = 874\nvalue = [103, 771]"] ;
408 -> 409 ;
410 [label="AtomicWeightMean <= 18.31\nentropy = 0.979\nsamples = 41\nvalue = [17, 24]"] ;
409 -> 410 ;
411 [label="entropy = 0.575\nsamples = 22\nvalue = [3, 19]"] ;
410 -> 411 ;
412 [label="entropy = 0.831\nsamples = 19\nvalue = [14, 5]"] ;
410 -> 412 ;
413 [label="AtomicWeightMax <= 138.295\nentropy = 0.479\nsamples = 833\nvalue = [86, 747]"] ;
409 -> 413 ;
414 [label="entropy = 0.354\nsamples = 554\nvalue = [37, 517]"] ;
413 -> 414 ;
415 [label="entropy = 0.67\nsamples = 279\nvalue = [49, 230]"] ;
413 -> 415 ;
416 [label="AtomicRadiusMean <= 1.08\nentropy = 0.918\nsamples = 7516\nvalue = [2501, 5015]"] ;
408 -> 416 ;
417 [label="AtomicRadiusMin <= 1.025\nentropy = 0.938\nsamples = 6375\nvalue = [2262, 4113]"] ;
416 -> 417 ;
418 [label="entropy = 0.677\nsamples = 487\nvalue = [87, 400]"] ;
417 -> 418 ;
419 [label="entropy = 0.95\nsamples = 5888\nvalue = [2175, 3713]"] ;
417 -> 419 ;
420 [label="AtomicRadiusMean <= 1.192\nentropy = 0.74\nsamples = 1141\nvalue = [239, 902]"] ;
416 -> 420 ;
421 [label="entropy = 0.799\nsamples = 890\nvalue = [216, 674]"] ;
420 -> 421 ;
422 [label="entropy = 0.442\nsamples = 251\nvalue = [23, 228]"] ;
420 -> 422 ;
423 [label="AtomicWeightMean <= 139.169\nentropy = 0.996\nsamples = 12655\nvalue = [5863, 6792]"] ;
407 -> 423 ;
424 [label="AtomicRadiusMean <= 1.375\nentropy = 0.993\nsamples = 12351\nvalue = [5569, 6782]"] ;
423 -> 424 ;
425 [label="ElectronegativityMean <= 2.355\nentropy = 1.0\nsamples = 10408\nvalue = [5166, 5242]"] ;
424 -> 425 ;
426 [label="entropy = 0.976\nsamples = 3800\nvalue = [2248, 1552]"] ;
425 -> 426 ;
427 [label="entropy = 0.99\nsamples = 6608\nvalue = [2918, 3690]"] ;
425 -> 427 ;
428 [label="ColumnMin <= 6.5\nentropy = 0.737\nsamples = 1943\nvalue = [403, 1540]"] ;
424 -> 428 ;
429 [label="entropy = 0.645\nsamples = 1720\nvalue = [283, 1437]"] ;
428 -> 429 ;
430 [label="entropy = 0.996\nsamples = 223\nvalue = [120, 103]"] ;
428 -> 430 ;
431 [label="AtomicRadiusMean <= 1.491\nentropy = 0.209\nsamples = 304\nvalue = [294, 10]"] ;
423 -> 431 ;
432 [label="ElectronegativityMean <= 2.438\nentropy = 0.038\nsamples = 248\nvalue = [247, 1]"] ;
431 -> 432 ;
433 [label="entropy = 0.0\nsamples = 235\nvalue = [235, 0]"] ;
432 -> 433 ;
434 [label="entropy = 0.391\nsamples = 13\nvalue = [12, 1]"] ;
432 -> 434 ;
435 [label="AtomicWeightMean <= 147.301\nentropy = 0.636\nsamples = 56\nvalue = [47, 9]"] ;
431 -> 435 ;
436 [label="entropy = 0.918\nsamples = 9\nvalue = [3, 6]"] ;
435 -> 436 ;
437 [label="entropy = 0.342\nsamples = 47\nvalue = [44, 3]"] ;
435 -> 437 ;
438 [label="ColumnMean <= 12.671\nentropy = 0.828\nsamples = 8184\nvalue = [2133, 6051]"] ;
406 -> 438 ;
439 [label="AtomicWeightMean <= 72.365\nentropy = 0.375\nsamples = 787\nvalue = [57, 730]"] ;
438 -> 439 ;
440 [label="ColumnMax <= 46.5\nentropy = 0.861\nsamples = 109\nvalue = [31, 78]"] ;
439 -> 440 ;
441 [label="AtomicWeightMin <= 58.063\nentropy = 0.84\nsamples = 26\nvalue = [19, 7]"] ;
440 -> 441 ;
442 [label="entropy = 0.337\nsamples = 16\nvalue = [15, 1]"] ;
441 -> 442 ;
443 [label="entropy = 0.971\nsamples = 10\nvalue = [4, 6]"] ;
441 -> 443 ;
444 [label="ElectronegativityMin <= 5.59\nentropy = 0.596\nsamples = 83\nvalue = [12, 71]"] ;
440 -> 444 ;
445 [label="entropy = 0.507\nsamples = 80\nvalue = [9, 71]"] ;
444 -> 445 ;
446 [label="entropy = 0.0\nsamples = 3\nvalue = [3, 0]"] ;
444 -> 446 ;
447 [label="ColumnMin <= 21.0\nentropy = 0.235\nsamples = 678\nvalue = [26, 652]"] ;
439 -> 447 ;
448 [label="ElectronegativityMin <= 1.71\nentropy = 0.208\nsamples = 673\nvalue = [22, 651]"] ;
447 -> 448 ;
449 [label="entropy = 0.585\nsamples = 57\nvalue = [8, 49]"] ;
448 -> 449 ;
450 [label="entropy = 0.156\nsamples = 616\nvalue = [14, 602]"] ;
448 -> 450 ;
451 [label="ElectronegativityMin <= 4.66\nentropy = 0.722\nsamples = 5\nvalue = [4, 1]"] ;
447 -> 451 ;
452 [label="entropy = 0.918\nsamples = 3\nvalue = [2, 1]"] ;
451 -> 452 ;
453 [label="entropy = 0.0\nsamples = 2\nvalue = [2, 0]"] ;
451 -> 453 ;
454 [label="ColumnMean <= 14.51\nentropy = 0.856\nsamples = 7397\nvalue = [2076, 5321]"] ;
438 -> 454 ;
455 [label="ColumnMin <= 5.5\nentropy = 0.909\nsamples = 5090\nvalue = [1651, 3439]"] ;
454 -> 455 ;
456 [label="ColumnMean <= 13.106\nentropy = 0.771\nsamples = 2895\nvalue = [654, 2241]"] ;
455 -> 456 ;
457 [label="entropy = 0.883\nsamples = 1377\nvalue = [415, 962]"] ;
456 -> 457 ;
458 [label="entropy = 0.628\nsamples = 1518\nvalue = [239, 1279]"] ;
456 -> 458 ;
459 [label="AtomicWeightMean <= 148.289\nentropy = 0.994\nsamples = 2195\nvalue = [997, 1198]"] ;
455 -> 459 ;
460 [label="entropy = 0.989\nsamples = 2123\nvalue = [931, 1192]"] ;
459 -> 460 ;
461 [label="entropy = 0.414\nsamples = 72\nvalue = [66, 6]"] ;
459 -> 461 ;
462 [label="ElectronegativityMean <= 2.139\nentropy = 0.689\nsamples = 2307\nvalue = [425, 1882]"] ;
454 -> 462 ;
463 [label="AtomicRadiusMax <= 4.475\nentropy = 0.977\nsamples = 100\nvalue = [41, 59]"] ;
462 -> 463 ;
464 [label="entropy = 0.926\nsamples = 41\nvalue = [27, 14]"] ;
463 -> 464 ;
465 [label="entropy = 0.791\nsamples = 59\nvalue = [14, 45]"] ;
463 -> 465 ;
466 [label="ElectronegativityMean <= 2.797\nentropy = 0.667\nsamples = 2207\nvalue = [384, 1823]"] ;
462 -> 466 ;
467 [label="entropy = 0.58\nsamples = 1495\nvalue = [207, 1288]"] ;
466 -> 467 ;
468 [label="entropy = 0.809\nsamples = 712\nvalue = [177, 535]"] ;
466 -> 468 ;
}