digraph Tree {
node [shape=box, fontname="helvetica"] ;
edge [fontname="helvetica"] ;
0 [label="ColumnMax <= 15.5\nentropy = 0.995\nsamples = 99473\nvalue = [45486, 53987]"] ;
1 [label="AtomicRadiusMin <= 0.675\nentropy = 0.596\nsamples = 32145\nvalue = [27499, 4646]"] ;
0 -> 1 [labeldistance=2.5, labelangle=45, headlabel="True"] ;
2 [label="RowMean <= 2.946\nentropy = 0.997\nsamples = 4272\nvalue = [2265, 2007]"] ;
1 -> 2 ;
3 [label="AtomicWeightMean <= 12.492\nentropy = 0.897\nsamples = 1765\nvalue = [553, 1212]"] ;
2 -> 3 ;
4 [label="RowMean <= 1.577\nentropy = 0.474\nsamples = 443\nvalue = [45, 398]"] ;
3 -> 4 ;
5 [label="ColumnMean <= 2.184\nentropy = 0.241\nsamples = 252\nvalue = [10, 242]"] ;
4 -> 5 ;
6 [label="AtomicWeightMean <= 3.821\nentropy = 0.795\nsamples = 25\nvalue = [6, 19]"] ;
5 -> 6 ;
7 [label="AtomicWeightMax <= 17.997\nentropy = 0.469\nsamples = 20\nvalue = [2, 18]"] ;
6 -> 7 ;
8 [label="entropy = 0.297\nsamples = 19\nvalue = [1, 18]"] ;
7 -> 8 ;
9 [label="entropy = 0.0\nsamples = 1\nvalue = [1, 0]"] ;
7 -> 9 ;
10 [label="ColumnMax <= 1.5\nentropy = 0.722\nsamples = 5\nvalue = [4, 1]"] ;
6 -> 10 ;
11 [label="entropy = 0.0\nsamples = 1\nvalue = [0, 1]"] ;
10 -> 11 ;
12 [label="entropy = 0.0\nsamples = 4\nvalue = [4, 0]"] ;
10 -> 12 ;
13 [label="AtomicWeightMax <= 168.992\nentropy = 0.128\nsamples = 227\nvalue = [4, 223]"] ;
5 -> 13 ;
14 [label="AtomicRadiusMean <= 0.335\nentropy = 0.075\nsamples = 219\nvalue = [2, 217]"] ;
13 -> 14 ;
15 [label="entropy = 0.0\nsamples = 1\nvalue = [1, 0]"] ;
14 -> 15 ;
16 [label="entropy = 0.042\nsamples = 218\nvalue = [1, 217]"] ;
14 -> 16 ;
17 [label="ElectronegativityMin <= 1.29\nentropy = 0.811\nsamples = 8\nvalue = [2, 6]"] ;
13 -> 17 ;
18 [label="entropy = 1.0\nsamples = 4\nvalue = [2, 2]"] ;
17 -> 18 ;
19 [label="entropy = 0.0\nsamples = 4\nvalue = [0, 4]"] ;
17 -> 19 ;
20 [label="AtomicWeightMean <= 11.997\nentropy = 0.687\nsamples = 191\nvalue = [35, 156]"] ;
4 -> 20 ;
21 [label="AtomicWeightMean <= 11.9\nentropy = 0.791\nsamples = 143\nvalue = [34, 109]"] ;
20 -> 21 ;
22 [label="AtomicWeightMax <= 43.972\nentropy = 0.731\nsamples = 137\nvalue = [28, 109]"] ;
21 -> 22 ;
23 [label="entropy = 0.581\nsamples = 108\nvalue = [15, 93]"] ;
22 -> 23 ;
24 [label="entropy = 0.992\nsamples = 29\nvalue = [13, 16]"] ;
22 -> 24 ;
25 [label="entropy = 0.0\nsamples = 6\nvalue = [6, 0]"] ;
21 -> 25 ;
26 [label="AtomicWeightMean <= 12.387\nentropy = 0.146\nsamples = 48\nvalue = [1, 47]"] ;
20 -> 26 ;
27 [label="entropy = 0.0\nsamples = 24\nvalue = [0, 24]"] ;
26 -> 27 ;
28 [label="ColumnMean <= 9.929\nentropy = 0.25\nsamples = 24\nvalue = [1, 23]"] ;
26 -> 28 ;
29 [label="entropy = 0.0\nsamples = 4\nvalue = [0, 4]"] ;
28 -> 29 ;
30 [label="entropy = 0.286\nsamples = 20\nvalue = [1, 19]"] ;
28 -> 30 ;
31 [label="AtomicRadiusMax <= 1.975\nentropy = 0.961\nsamples = 1322\nvalue = [508, 814]"] ;
3 -> 31 ;
32 [label="ColumnMean <= 13.871\nentropy = 0.993\nsamples = 1025\nvalue = [462, 563]"] ;
31 -> 32 ;
33 [label="AtomicWeightMax <= 46.411\nentropy = 0.996\nsamples = 775\nvalue = [418, 357]"] ;
32 -> 33 ;
34 [label="ElectronegativityMean <= 1.765\nentropy = 0.752\nsamples = 130\nvalue = [28, 102]"] ;
33 -> 34 ;
35 [label="entropy = 0.949\nsamples = 19\nvalue = [12, 7]"] ;
34 -> 35 ;
36 [label="entropy = 0.595\nsamples = 111\nvalue = [16, 95]"] ;
34 -> 36 ;
37 [label="AtomicWeightMax <= 64.463\nentropy = 0.968\nsamples = 645\nvalue = [390, 255]"] ;
33 -> 37 ;
38 [label="entropy = 0.815\nsamples = 293\nvalue = [219, 74]"] ;
37 -> 38 ;
39 [label="entropy = 0.999\nsamples = 352\nvalue = [171, 181]"] ;
37 -> 39 ;
40 [label="AtomicWeightMean <= 12.526\nentropy = 0.671\nsamples = 250\nvalue = [44, 206]"] ;
32 -> 40 ;
41 [label="entropy = 0.0\nsamples = 12\nvalue = [12, 0]"] ;
40 -> 41 ;
42 [label="AtomicRadiusMean <= 0.719\nentropy = 0.57\nsamples = 238\nvalue = [32, 206]"] ;
40 -> 42 ;
43 [label="entropy = 0.885\nsamples = 66\nvalue = [20, 46]"] ;
42 -> 43 ;
44 [label="entropy = 0.365\nsamples = 172\nvalue = [12, 160]"] ;
42 -> 44 ;
45 [label="ColumnMean <= 12.796\nentropy = 0.622\nsamples = 297\nvalue = [46, 251]"] ;
31 -> 45 ;
46 [label="ElectronegativityMean <= 2.362\nentropy = 0.681\nsamples = 255\nvalue = [46, 209]"] ;
45 -> 46 ;
47 [label="ElectronegativityMean <= 1.754\nentropy = 0.514\nsamples = 192\nvalue = [22, 170]"] ;
46 -> 47 ;
48 [label="entropy = 0.0\nsamples = 40\nvalue = [0, 40]"] ;
47 -> 48 ;
49 [label="entropy = 0.597\nsamples = 152\nvalue = [22, 130]"] ;
47 -> 49 ;
50 [label="RowMean <= 2.916\nentropy = 0.959\nsamples = 63\nvalue = [24, 39]"] ;
46 -> 50 ;
51 [label="entropy = 0.924\nsamples = 59\nvalue = [20, 39]"] ;
50 -> 51 ;
52 [label="entropy = 0.0\nsamples = 4\nvalue = [4, 0]"] ;
50 -> 52 ;
53 [label="entropy = 0.0\nsamples = 42\nvalue = [0, 42]"] ;
45 -> 53 ;
54 [label="AtomicRadiusMax <= 1.475\nentropy = 0.901\nsamples = 2507\nvalue = [1712, 795]"] ;
2 -> 54 ;
55 [label="ColumnMean <= 13.225\nentropy = 0.504\nsamples = 843\nvalue = [749, 94]"] ;
54 -> 55 ;
56 [label="ColumnMean <= 11.183\nentropy = 0.322\nsamples = 749\nvalue = [705, 44]"] ;
55 -> 56 ;
57 [label="ColumnMin <= 5.5\nentropy = 0.122\nsamples = 421\nvalue = [414, 7]"] ;
56 -> 57 ;
58 [label="AtomicRadiusMean <= 1.182\nentropy = 0.21\nsamples = 211\nvalue = [204, 7]"] ;
57 -> 58 ;
59 [label="entropy = 0.126\nsamples = 174\nvalue = [171, 3]"] ;
58 -> 59 ;
60 [label="entropy = 0.494\nsamples = 37\nvalue = [33, 4]"] ;
58 -> 60 ;
61 [label="entropy = 0.0\nsamples = 210\nvalue = [210, 0]"] ;
57 -> 61 ;
62 [label="ColumnMin <= 6.5\nentropy = 0.508\nsamples = 328\nvalue = [291, 37]"] ;
56 -> 62 ;
63 [label="AtomicRadiusMean <= 0.915\nentropy = 0.915\nsamples = 91\nvalue = [61, 30]"] ;
62 -> 63 ;
64 [label="entropy = 0.837\nsamples = 15\nvalue = [4, 11]"] ;
63 -> 64 ;
65 [label="entropy = 0.811\nsamples = 76\nvalue = [57, 19]"] ;
63 -> 65 ;
66 [label="ColumnMean <= 12.422\nentropy = 0.192\nsamples = 237\nvalue = [230, 7]"] ;
62 -> 66 ;
67 [label="entropy = 0.055\nsamples = 158\nvalue = [157, 1]"] ;
66 -> 67 ;
68 [label="entropy = 0.388\nsamples = 79\nvalue = [73, 6]"] ;
66 -> 68 ;
69 [label="AtomicWeightMean <= 41.279\nentropy = 0.997\nsamples = 94\nvalue = [44, 50]"] ;
55 -> 69 ;
70 [label="ColumnMin <= 9.5\nentropy = 0.391\nsamples = 13\nvalue = [12, 1]"] ;
69 -> 70 ;
71 [label="entropy = 1.0\nsamples = 2\nvalue = [1, 1]"] ;
70 -> 71 ;
72 [label="entropy = 0.0\nsamples = 11\nvalue = [11, 0]"] ;
70 -> 72 ;
73 [label="ColumnMin <= 10.5\nentropy = 0.968\nsamples = 81\nvalue = [32, 49]"] ;
69 -> 73 ;
74 [label="ElectronegativityMin <= 1.545\nentropy = 0.863\nsamples = 14\nvalue = [10, 4]"] ;
73 -> 74 ;
75 [label="entropy = 0.0\nsamples = 2\nvalue = [0, 2]"] ;
74 -> 75 ;
76 [label="entropy = 0.65\nsamples = 12\nvalue = [10, 2]"] ;
74 -> 76 ;
77 [label="ColumnMean <= 13.578\nentropy = 0.913\nsamples = 67\nvalue = [22, 45]"] ;
73 -> 77 ;
78 [label="entropy = 0.0\nsamples = 7\nvalue = [0, 7]"] ;
77 -> 78 ;
79 [label="entropy = 0.948\nsamples = 60\nvalue = [22, 38]"] ;
77 -> 79 ;
80 [label="ElectronegativityMin <= 1.05\nentropy = 0.982\nsamples = 1664\nvalue = [963, 701]"] ;
54 -> 80 ;
81 [label="ColumnMean <= 9.832\nentropy = 1.0\nsamples = 969\nvalue = [481, 488]"] ;
80 -> 81 ;
82 [label="AtomicWeightMin <= 13.009\nentropy = 0.995\nsamples = 795\nvalue = [432, 363]"] ;
81 -> 82 ;
83 [label="ElectronegativityMean <= 1.471\nentropy = 0.929\nsamples = 87\nvalue = [30, 57]"] ;
82 -> 83 ;
84 [label="entropy = 0.722\nsamples = 10\nvalue = [8, 2]"] ;
83 -> 84 ;
85 [label="entropy = 0.863\nsamples = 77\nvalue = [22, 55]"] ;
83 -> 85 ;
86 [label="AtomicWeightMean <= 29.677\nentropy = 0.987\nsamples = 708\nvalue = [402, 306]"] ;
82 -> 86 ;
87 [label="entropy = 0.9\nsamples = 38\nvalue = [12, 26]"] ;
86 -> 87 ;
88 [label="entropy = 0.98\nsamples = 670\nvalue = [390, 280]"] ;
86 -> 88 ;
89 [label="ElectronegativityMean <= 2.143\nentropy = 0.858\nsamples = 174\nvalue = [49, 125]"] ;
81 -> 89 ;
90 [label="AtomicWeightMin <= 8.876\nentropy = 0.131\nsamples = 55\nvalue = [1, 54]"] ;
89 -> 90 ;
91 [label="entropy = 0.918\nsamples = 3\nvalue = [1, 2]"] ;
90 -> 91 ;
92 [label="entropy = 0.0\nsamples = 52\nvalue = [0, 52]"] ;
90 -> 92 ;
93 [label="ColumnMean <= 10.486\nentropy = 0.973\nsamples = 119\nvalue = [48, 71]"] ;
89 -> 93 ;
94 [label="entropy = 0.963\nsamples = 49\nvalue = [30, 19]"] ;
93 -> 94 ;
95 [label="entropy = 0.822\nsamples = 70\nvalue = [18, 52]"] ;
93 -> 95 ;
96 [label="ColumnMean <= 10.279\nentropy = 0.889\nsamples = 695\nvalue = [482, 213]"] ;
80 -> 96 ;
97 [label="AtomicWeightMean <= 51.836\nentropy = 0.499\nsamples = 356\nvalue = [317, 39]"] ;
96 -> 97 ;
98 [label="AtomicRadiusMean <= 1.186\nentropy = 0.858\nsamples = 71\nvalue = [51, 20]"] ;
97 -> 98 ;
99 [label="entropy = 0.694\nsamples = 59\nvalue = [48, 11]"] ;
98 -> 99 ;
100 [label="entropy = 0.811\nsamples = 12\nvalue = [3, 9]"] ;
98 -> 100 ;
101 [label="AtomicRadiusMax <= 1.575\nentropy = 0.353\nsamples = 285\nvalue = [266, 19]"] ;
97 -> 101 ;
102 [label="entropy = 0.0\nsamples = 80\nvalue = [80, 0]"] ;
101 -> 102 ;
103 [label="entropy = 0.445\nsamples = 205\nvalue = [186, 19]"] ;
101 -> 103 ;
104 [label="ColumnMean <= 13.528\nentropy = 0.999\nsamples = 339\nvalue = [165, 174]"] ;
96 -> 104 ;
105 [label="ColumnMin <= 5.5\nentropy = 0.982\nsamples = 244\nvalue = [141, 103]"] ;
104 -> 105 ;
106 [label="entropy = 0.98\nsamples = 161\nvalue = [67, 94]"] ;
105 -> 106 ;
107 [label="entropy = 0.495\nsamples = 83\nvalue = [74, 9]"] ;
105 -> 107 ;
108 [label="AtomicRadiusMean <= 1.053\nentropy = 0.815\nsamples = 95\nvalue = [24, 71]"] ;
104 -> 108 ;
109 [label="entropy = 0.316\nsamples = 35\nvalue = [2, 33]"] ;
108 -> 109 ;
110 [label="entropy = 0.948\nsamples = 60\nvalue = [22, 38]"] ;
108 -> 110 ;
111 [label="ElectronegativityMin <= 1.05\nentropy = 0.452\nsamples = 27873\nvalue = [25234, 2639]"] ;
1 -> 111 ;
112 [label="ColumnMax <= 14.5\nentropy = 0.784\nsamples = 4969\nvalue = [3808, 1161]"] ;
111 -> 112 ;
113 [label="ColumnMax <= 10.5\nentropy = 0.614\nsamples = 3835\nvalue = [3253, 582]"] ;
112 -> 113 ;
114 [label="ElectronegativityMax <= 1.05\nentropy = 0.284\nsamples = 1234\nvalue = [1173, 61]"] ;
113 -> 114 ;
115 [label="AtomicWeightMin <= 31.044\nentropy = 0.512\nsamples = 219\nvalue = [194, 25]"] ;
114 -> 115 ;
116 [label="AtomicWeightMean <= 35.233\nentropy = 0.753\nsamples = 74\nvalue = [58, 16]"] ;
115 -> 116 ;
117 [label="entropy = 0.172\nsamples = 39\nvalue = [38, 1]"] ;
116 -> 117 ;
118 [label="entropy = 0.985\nsamples = 35\nvalue = [20, 15]"] ;
116 -> 118 ;
119 [label="ElectronegativityMean <= 0.961\nentropy = 0.336\nsamples = 145\nvalue = [136, 9]"] ;
115 -> 119 ;
120 [label="entropy = 0.378\nsamples = 123\nvalue = [114, 9]"] ;
119 -> 120 ;
121 [label="entropy = 0.0\nsamples = 22\nvalue = [22, 0]"] ;
119 -> 121 ;
122 [label="ElectronegativityMean <= 1.267\nentropy = 0.221\nsamples = 1015\nvalue = [979, 36]"] ;
114 -> 122 ;
123 [label="ElectronegativityMax <= 1.305\nentropy = 0.064\nsamples = 666\nvalue = [661, 5]"] ;
122 -> 123 ;
124 [label="entropy = 0.0\nsamples = 293\nvalue = [293, 0]"] ;
123 -> 124 ;
125 [label="entropy = 0.103\nsamples = 373\nvalue = [368, 5]"] ;
123 -> 125 ;
126 [label="ElectronegativityMean <= 1.309\nentropy = 0.433\nsamples = 349\nvalue = [318, 31]"] ;
122 -> 126 ;
127 [label="entropy = 0.848\nsamples = 51\nvalue = [37, 14]"] ;
126 -> 127 ;
128 [label="entropy = 0.316\nsamples = 298\nvalue = [281, 17]"] ;
126 -> 128 ;
129 [label="ElectronegativityMax <= 2.545\nentropy = 0.723\nsamples = 2601\nvalue = [2080, 521]"] ;
113 -> 129 ;
130 [label="AtomicRadiusMean <= 1.668\nentropy = 0.693\nsamples = 2503\nvalue = [2037, 466]"] ;
129 -> 130 ;
131 [label="AtomicRadiusMax <= 1.675\nentropy = 0.62\nsamples = 1825\nvalue = [1544, 281]"] ;
130 -> 131 ;
132 [label="entropy = 0.787\nsamples = 434\nvalue = [332, 102]"] ;
131 -> 132 ;
133 [label="entropy = 0.554\nsamples = 1391\nvalue = [1212, 179]"] ;
131 -> 133 ;
134 [label="ColumnMax <= 13.5\nentropy = 0.846\nsamples = 678\nvalue = [493, 185]"] ;
130 -> 134 ;
135 [label="entropy = 0.7\nsamples = 454\nvalue = [368, 86]"] ;
134 -> 135 ;
136 [label="entropy = 0.99\nsamples = 224\nvalue = [125, 99]"] ;
134 -> 136 ;
137 [label="ElectronegativityMean <= 1.638\nentropy = 0.989\nsamples = 98\nvalue = [43, 55]"] ;
129 -> 137 ;
138 [label="RowMean <= 4.018\nentropy = 0.391\nsamples = 13\nvalue = [12, 1]"] ;
137 -> 138 ;
139 [label="entropy = 0.0\nsamples = 11\nvalue = [11, 0]"] ;
138 -> 139 ;
140 [label="entropy = 1.0\nsamples = 2\nvalue = [1, 1]"] ;
138 -> 140 ;
141 [label="ElectronegativityMean <= 2.213\nentropy = 0.947\nsamples = 85\nvalue = [31, 54]"] ;
137 -> 141 ;
142 [label="entropy = 0.771\nsamples = 62\nvalue = [14, 48]"] ;
141 -> 142 ;
143 [label="entropy = 0.828\nsamples = 23\nvalue = [17, 6]"] ;
141 -> 143 ;
144 [label="ElectronegativityMean <= 1.778\nentropy = 1.0\nsamples = 1134\nvalue = [555, 579]"] ;
112 -> 144 ;
145 [label="AtomicWeightMax <= 208.09\nentropy = 0.974\nsamples = 877\nvalue = [356, 521]"] ;
144 -> 145 ;
146 [label="AtomicRadiusMax <= 1.775\nentropy = 0.931\nsamples = 710\nvalue = [246, 464]"] ;
145 -> 146 ;
147 [label="ElectronegativityMean <= 1.615\nentropy = 0.963\nsamples = 93\nvalue = [57, 36]"] ;
146 -> 147 ;
148 [label="entropy = 1.0\nsamples = 66\nvalue = [33, 33]"] ;
147 -> 148 ;
149 [label="entropy = 0.503\nsamples = 27\nvalue = [24, 3]"] ;
147 -> 149 ;
150 [label="AtomicWeightMin <= 39.588\nentropy = 0.889\nsamples = 617\nvalue = [189, 428]"] ;
146 -> 150 ;
151 [label="entropy = 0.799\nsamples = 417\nvalue = [101, 316]"] ;
150 -> 151 ;
152 [label="entropy = 0.99\nsamples = 200\nvalue = [88, 112]"] ;
150 -> 152 ;
153 [label="ColumnMean <= 10.75\nentropy = 0.926\nsamples = 167\nvalue = [110, 57]"] ;
145 -> 153 ;
154 [label="ColumnMin <= 1.5\nentropy = 0.953\nsamples = 153\nvalue = [96, 57]"] ;
153 -> 154 ;
155 [label="entropy = 0.999\nsamples = 81\nvalue = [42, 39]"] ;
154 -> 155 ;
156 [label="entropy = 0.811\nsamples = 72\nvalue = [54, 18]"] ;
154 -> 156 ;
157 [label="entropy = 0.0\nsamples = 14\nvalue = [14, 0]"] ;
153 -> 157 ;
158 [label="ColumnMean <= 11.569\nentropy = 0.77\nsamples = 257\nvalue = [199, 58]"] ;
144 -> 158 ;
159 [label="AtomicRadiusMean <= 1.312\nentropy = 0.439\nsamples = 187\nvalue = [170, 17]"] ;
158 -> 159 ;
160 [label="ElectronegativityMean <= 1.972\nentropy = 0.857\nsamples = 32\nvalue = [23, 9]"] ;
159 -> 160 ;
161 [label="entropy = 0.918\nsamples = 27\nvalue = [18, 9]"] ;
160 -> 161 ;
162 [label="entropy = 0.0\nsamples = 5\nvalue = [5, 0]"] ;
160 -> 162 ;
163 [label="ElectronegativityMean <= 1.852\nentropy = 0.293\nsamples = 155\nvalue = [147, 8]"] ;
159 -> 163 ;
164 [label="entropy = 0.0\nsamples = 59\nvalue = [59, 0]"] ;
163 -> 164 ;
165 [label="entropy = 0.414\nsamples = 96\nvalue = [88, 8]"] ;
163 -> 165 ;
166 [label="AtomicRadiusMean <= 1.232\nentropy = 0.979\nsamples = 70\nvalue = [29, 41]"] ;
158 -> 166 ;
167 [label="entropy = 0.0\nsamples = 17\nvalue = [0, 17]"] ;
166 -> 167 ;
168 [label="ElectronegativityMean <= 1.917\nentropy = 0.994\nsamples = 53\nvalue = [29, 24]"] ;
166 -> 168 ;
169 [label="entropy = 0.971\nsamples = 35\nvalue = [14, 21]"] ;
168 -> 169 ;
170 [label="entropy = 0.65\nsamples = 18\nvalue = [15, 3]"] ;
168 -> 170 ;
171 [label="ColumnMean <= 12.638\nentropy = 0.345\nsamples = 22904\nvalue = [21426, 1478]"] ;
111 -> 171 ;
172 [label="ColumnMean <= 2.096\nentropy = 0.306\nsamples = 21942\nvalue = [20744, 1198]"] ;
171 -> 172 ;
173 [label="RowMean <= 3.003\nentropy = 0.994\nsamples = 77\nvalue = [35, 42]"] ;
172 -> 173 ;
174 [label="ColumnMax <= 8.5\nentropy = 0.422\nsamples = 35\nvalue = [32, 3]"] ;
173 -> 174 ;
175 [label="ElectronegativityMean <= 1.408\nentropy = 0.196\nsamples = 33\nvalue = [32, 1]"] ;
174 -> 175 ;
176 [label="entropy = 0.503\nsamples = 9\nvalue = [8, 1]"] ;
175 -> 176 ;
177 [label="entropy = 0.0\nsamples = 24\nvalue = [24, 0]"] ;
175 -> 177 ;
178 [label="entropy = 0.0\nsamples = 2\nvalue = [0, 2]"] ;
174 -> 178 ;
179 [label="ElectronegativityMean <= 1.303\nentropy = 0.371\nsamples = 42\nvalue = [3, 39]"] ;
173 -> 179 ;
180 [label="entropy = 0.0\nsamples = 3\nvalue = [3, 0]"] ;
179 -> 180 ;
181 [label="entropy = 0.0\nsamples = 39\nvalue = [0, 39]"] ;
179 -> 181 ;
182 [label="ElectronegativityMax <= 1.945\nentropy = 0.298\nsamples = 21865\nvalue = [20709, 1156]"] ;
172 -> 182 ;
183 [label="ElectronegativityMean <= 1.413\nentropy = 0.195\nsamples = 8520\nvalue = [8264, 256]"] ;
182 -> 183 ;
184 [label="ElectronegativityMax <= 1.905\nentropy = 0.072\nsamples = 1615\nvalue = [1601, 14]"] ;
183 -> 184 ;
185 [label="entropy = 0.047\nsamples = 1553\nvalue = [1545, 8]"] ;
184 -> 185 ;
186 [label="entropy = 0.459\nsamples = 62\nvalue = [56, 6]"] ;
184 -> 186 ;
187 [label="AtomicWeightMean <= 29.9\nentropy = 0.219\nsamples = 6905\nvalue = [6663, 242]"] ;
183 -> 187 ;
188 [label="entropy = 0.043\nsamples = 636\nvalue = [633, 3]"] ;
187 -> 188 ;
189 [label="entropy = 0.234\nsamples = 6269\nvalue = [6030, 239]"] ;
187 -> 189 ;
190 [label="RowMax <= 3.5\nentropy = 0.356\nsamples = 13345\nvalue = [12445, 900]"] ;
182 -> 190 ;
191 [label="ElectronegativityMean <= 1.889\nentropy = 0.996\nsamples = 39\nvalue = [18, 21]"] ;
190 -> 191 ;
192 [label="entropy = 0.764\nsamples = 18\nvalue = [14, 4]"] ;
191 -> 192 ;
193 [label="entropy = 0.702\nsamples = 21\nvalue = [4, 17]"] ;
191 -> 193 ;
194 [label="ColumnMax <= 14.5\nentropy = 0.351\nsamples = 13306\nvalue = [12427, 879]"] ;
190 -> 194 ;
195 [label="entropy = 0.322\nsamples = 10769\nvalue = [10137, 632]"] ;
194 -> 195 ;
196 [label="entropy = 0.461\nsamples = 2537\nvalue = [2290, 247]"] ;
194 -> 196 ;
197 [label="AtomicRadiusMean <= 1.248\nentropy = 0.87\nsamples = 962\nvalue = [682, 280]"] ;
171 -> 197 ;
198 [label="ColumnMean <= 13.938\nentropy = 1.0\nsamples = 450\nvalue = [223, 227]"] ;
197 -> 198 ;
199 [label="ElectronegativityMean <= 2.222\nentropy = 0.962\nsamples = 223\nvalue = [137, 86]"] ;
198 -> 199 ;
200 [label="ElectronegativityMax <= 2.185\nentropy = 0.989\nsamples = 194\nvalue = [109, 85]"] ;
199 -> 200 ;
201 [label="entropy = 0.691\nsamples = 54\nvalue = [44, 10]"] ;
200 -> 201 ;
202 [label="entropy = 0.996\nsamples = 140\nvalue = [65, 75]"] ;
200 -> 202 ;
203 [label="ColumnMin <= 4.5\nentropy = 0.216\nsamples = 29\nvalue = [28, 1]"] ;
199 -> 203 ;
204 [label="entropy = 1.0\nsamples = 2\nvalue = [1, 1]"] ;
203 -> 204 ;
205 [label="entropy = 0.0\nsamples = 27\nvalue = [27, 0]"] ;
203 -> 205 ;
206 [label="AtomicRadiusMean <= 1.082\nentropy = 0.957\nsamples = 227\nvalue = [86, 141]"] ;
198 -> 206 ;
207 [label="ColumnMin <= 13.5\nentropy = 0.783\nsamples = 103\nvalue = [24, 79]"] ;
206 -> 207 ;
208 [label="entropy = 0.0\nsamples = 16\nvalue = [0, 16]"] ;
207 -> 208 ;
209 [label="entropy = 0.85\nsamples = 87\nvalue = [24, 63]"] ;
207 -> 209 ;
210 [label="AtomicRadiusMax <= 1.475\nentropy = 1.0\nsamples = 124\nvalue = [62, 62]"] ;
206 -> 210 ;
211 [label="entropy = 0.992\nsamples = 105\nvalue = [58, 47]"] ;
210 -> 211 ;
212 [label="entropy = 0.742\nsamples = 19\nvalue = [4, 15]"] ;
210 -> 212 ;
213 [label="AtomicWeightMax <= 140.512\nentropy = 0.48\nsamples = 512\nvalue = [459, 53]"] ;
197 -> 213 ;
214 [label="ElectronegativityMin <= 1.735\nentropy = 0.634\nsamples = 275\nvalue = [231, 44]"] ;
213 -> 214 ;
215 [label="ElectronegativityMax <= 1.985\nentropy = 0.894\nsamples = 87\nvalue = [60, 27]"] ;
214 -> 215 ;
216 [label="entropy = 0.235\nsamples = 26\nvalue = [25, 1]"] ;
215 -> 216 ;
217 [label="entropy = 0.984\nsamples = 61\nvalue = [35, 26]"] ;
215 -> 217 ;
218 [label="ElectronegativityMean <= 1.912\nentropy = 0.438\nsamples = 188\nvalue = [171, 17]"] ;
214 -> 218 ;
219 [label="entropy = 0.0\nsamples = 43\nvalue = [43, 0]"] ;
218 -> 219 ;
220 [label="entropy = 0.521\nsamples = 145\nvalue = [128, 17]"] ;
218 -> 220 ;
221 [label="AtomicWeightMin <= 208.09\nentropy = 0.233\nsamples = 237\nvalue = [228, 9]"] ;
213 -> 221 ;
222 [label="ColumnMean <= 13.509\nentropy = 0.197\nsamples = 229\nvalue = [222, 7]"] ;
221 -> 222 ;
223 [label="entropy = 0.268\nsamples = 153\nvalue = [146, 7]"] ;
222 -> 223 ;
224 [label="entropy = 0.0\nsamples = 76\nvalue = [76, 0]"] ;
222 -> 224 ;
225 [label="entropy = 0.811\nsamples = 8\nvalue = [6, 2]"] ;
221 -> 225 ;
226 [label="RowMean <= 2.403\nentropy = 0.837\nsamples = 67328\nvalue = [17987, 49341]"] ;
0 -> 226 [labeldistance=2.5, labelangle=-45, headlabel="False"] ;
227 [label="AtomicRadiusMin <= 0.55\nentropy = 0.501\nsamples = 13282\nvalue = [1467, 11815]"] ;
226 -> 227 ;
228 [label="ColumnMean <= 12.855\nentropy = 0.323\nsamples = 6406\nvalue = [377, 6029]"] ;
227 -> 228 ;
229 [label="AtomicWeightMean <= 17.637\nentropy = 0.276\nsamples = 5432\nvalue = [259, 5173]"] ;
228 -> 229 ;
230 [label="ElectronegativityMean <= 2.658\nentropy = 0.214\nsamples = 2909\nvalue = [99, 2810]"] ;
229 -> 230 ;
231 [label="AtomicRadiusMean <= 0.444\nentropy = 0.158\nsamples = 1436\nvalue = [33, 1403]"] ;
230 -> 231 ;
232 [label="AtomicRadiusMean <= 0.444\nentropy = 0.311\nsamples = 143\nvalue = [8, 135]"] ;
231 -> 232 ;
233 [label="entropy = 0.254\nsamples = 141\nvalue = [6, 135]"] ;
232 -> 233 ;
234 [label="entropy = 0.0\nsamples = 2\nvalue = [2, 0]"] ;
232 -> 234 ;
235 [label="AtomicWeightMean <= 9.597\nentropy = 0.138\nsamples = 1293\nvalue = [25, 1268]"] ;
231 -> 235 ;
236 [label="entropy = 0.0\nsamples = 208\nvalue = [0, 208]"] ;
235 -> 236 ;
237 [label="entropy = 0.158\nsamples = 1085\nvalue = [25, 1060]"] ;
235 -> 237 ;
238 [label="AtomicRadiusMean <= 0.684\nentropy = 0.264\nsamples = 1473\nvalue = [66, 1407]"] ;
230 -> 238 ;
239 [label="ElectronegativityMin <= 2.195\nentropy = 0.285\nsamples = 1330\nvalue = [66, 1264]"] ;
238 -> 239 ;
240 [label="entropy = 0.315\nsamples = 1125\nvalue = [64, 1061]"] ;
239 -> 240 ;
241 [label="entropy = 0.079\nsamples = 205\nvalue = [2, 203]"] ;
239 -> 241 ;
242 [label="entropy = 0.0\nsamples = 143\nvalue = [0, 143]"] ;
238 -> 242 ;
243 [label="AtomicRadiusMax <= 1.375\nentropy = 0.341\nsamples = 2523\nvalue = [160, 2363]"] ;
229 -> 243 ;
244 [label="AtomicWeightMax <= 64.463\nentropy = 0.559\nsamples = 283\nvalue = [37, 246]"] ;
243 -> 244 ;
245 [label="AtomicWeightMax <= 61.24\nentropy = 0.783\nsamples = 103\nvalue = [24, 79]"] ;
244 -> 245 ;
246 [label="entropy = 0.518\nsamples = 69\nvalue = [8, 61]"] ;
245 -> 246 ;
247 [label="entropy = 0.998\nsamples = 34\nvalue = [16, 18]"] ;
245 -> 247 ;
248 [label="RowMax <= 5.5\nentropy = 0.374\nsamples = 180\nvalue = [13, 167]"] ;
244 -> 248 ;
249 [label="entropy = 0.459\nsamples = 134\nvalue = [13, 121]"] ;
248 -> 249 ;
250 [label="entropy = 0.0\nsamples = 46\nvalue = [0, 46]"] ;
248 -> 250 ;
251 [label="AtomicRadiusMax <= 2.275\nentropy = 0.307\nsamples = 2240\nvalue = [123, 2117]"] ;
243 -> 251 ;
252 [label="AtomicRadiusMean <= 0.547\nentropy = 0.321\nsamples = 2109\nvalue = [123, 1986]"] ;
251 -> 252 ;
253 [label="entropy = 0.0\nsamples = 76\nvalue = [0, 76]"] ;
252 -> 253 ;
254 [label="entropy = 0.329\nsamples = 2033\nvalue = [123, 1910]"] ;
252 -> 254 ;
255 [label="entropy = 0.0\nsamples = 131\nvalue = [0, 131]"] ;
251 -> 255 ;
256 [label="AtomicRadiusMax <= 1.2\nentropy = 0.533\nsamples = 974\nvalue = [118, 856]"] ;
228 -> 256 ;
257 [label="ElectronegativityMean <= 3.536\nentropy = 0.122\nsamples = 180\nvalue = [3, 177]"] ;
256 -> 257 ;
258 [label="entropy = 0.0\nsamples = 137\nvalue = [0, 137]"] ;
257 -> 258 ;
259 [label="AtomicWeightMax <= 31.519\nentropy = 0.365\nsamples = 43\nvalue = [3, 40]"] ;
257 -> 259 ;
260 [label="AtomicWeightMean <= 18.574\nentropy = 0.75\nsamples = 14\nvalue = [3, 11]"] ;
259 -> 260 ;
261 [label="entropy = 0.0\nsamples = 5\nvalue = [0, 5]"] ;
260 -> 261 ;
262 [label="entropy = 0.918\nsamples = 9\nvalue = [3, 6]"] ;
260 -> 262 ;
263 [label="entropy = 0.0\nsamples = 29\nvalue = [0, 29]"] ;
259 -> 263 ;
264 [label="AtomicWeightMax <= 53.467\nentropy = 0.597\nsamples = 794\nvalue = [115, 679]"] ;
256 -> 264 ;
265 [label="AtomicWeightMean <= 24.635\nentropy = 0.426\nsamples = 334\nvalue = [29, 305]"] ;
264 -> 265 ;
266 [label="ElectronegativityMin <= 1.155\nentropy = 0.502\nsamples = 262\nvalue = [29, 233]"] ;
265 -> 266 ;
267 [label="entropy = 0.346\nsamples = 170\nvalue = [11, 159]"] ;
266 -> 267 ;
268 [label="entropy = 0.713\nsamples = 92\nvalue = [18, 74]"] ;
266 -> 268 ;
269 [label="entropy = 0.0\nsamples = 72\nvalue = [0, 72]"] ;
265 -> 269 ;
270 [label="AtomicWeightMax <= 104.663\nentropy = 0.695\nsamples = 460\nvalue = [86, 374]"] ;
264 -> 270 ;
271 [label="AtomicWeightMean <= 22.738\nentropy = 0.798\nsamples = 298\nvalue = [72, 226]"] ;
270 -> 271 ;
272 [label="entropy = 0.602\nsamples = 143\nvalue = [21, 122]"] ;
271 -> 272 ;
273 [label="entropy = 0.914\nsamples = 155\nvalue = [51, 104]"] ;
271 -> 273 ;
274 [label="ElectronegativityMean <= 2.789\nentropy = 0.424\nsamples = 162\nvalue = [14, 148]"] ;
270 -> 274 ;
275 [label="entropy = 0.918\nsamples = 3\nvalue = [2, 1]"] ;
274 -> 275 ;
276 [label="entropy = 0.386\nsamples = 159\nvalue = [12, 147]"] ;
274 -> 276 ;
277 [label="ElectronegativityMean <= 2.94\nentropy = 0.631\nsamples = 6876\nvalue = [1090, 5786]"] ;
227 -> 277 ;
278 [label="RowMean <= 2.335\nentropy = 0.557\nsamples = 5598\nvalue = [726, 4872]"] ;
277 -> 278 ;
279 [label="RowMean <= 2.283\nentropy = 0.453\nsamples = 3076\nvalue = [292, 2784]"] ;
278 -> 279 ;
280 [label="ElectronegativityMean <= 2.768\nentropy = 0.571\nsamples = 1208\nvalue = [163, 1045]"] ;
279 -> 280 ;
281 [label="AtomicWeightMean <= 9.904\nentropy = 0.464\nsamples = 883\nvalue = [87, 796]"] ;
280 -> 281 ;
282 [label="entropy = 0.0\nsamples = 4\nvalue = [4, 0]"] ;
281 -> 282 ;
283 [label="entropy = 0.451\nsamples = 879\nvalue = [83, 796]"] ;
281 -> 283 ;
284 [label="AtomicWeightMean <= 21.685\nentropy = 0.785\nsamples = 325\nvalue = [76, 249]"] ;
280 -> 284 ;
285 [label="entropy = 0.81\nsamples = 305\nvalue = [76, 229]"] ;
284 -> 285 ;
286 [label="entropy = 0.0\nsamples = 20\nvalue = [0, 20]"] ;
284 -> 286 ;
287 [label="AtomicRadiusMax <= 1.475\nentropy = 0.362\nsamples = 1868\nvalue = [129, 1739]"] ;
279 -> 287 ;
288 [label="AtomicWeightMax <= 55.392\nentropy = 0.311\nsamples = 1608\nvalue = [90, 1518]"] ;
287 -> 288 ;
289 [label="entropy = 0.222\nsamples = 1097\nvalue = [39, 1058]"] ;
288 -> 289 ;
290 [label="entropy = 0.468\nsamples = 511\nvalue = [51, 460]"] ;
288 -> 290 ;
291 [label="AtomicWeightMin <= 11.411\nentropy = 0.61\nsamples = 260\nvalue = [39, 221]"] ;
287 -> 291 ;
292 [label="entropy = 0.404\nsamples = 149\nvalue = [12, 137]"] ;
291 -> 292 ;
293 [label="entropy = 0.8\nsamples = 111\nvalue = [27, 84]"] ;
291 -> 293 ;
294 [label="ColumnMean <= 10.477\nentropy = 0.662\nsamples = 2522\nvalue = [434, 2088]"] ;
278 -> 294 ;
295 [label="ColumnMean <= 8.849\nentropy = 0.948\nsamples = 276\nvalue = [101, 175]"] ;
294 -> 295 ;
296 [label="AtomicWeightMax <= 57.269\nentropy = 0.281\nsamples = 41\nvalue = [2, 39]"] ;
295 -> 296 ;
297 [label="entropy = 0.619\nsamples = 13\nvalue = [2, 11]"] ;
296 -> 297 ;
298 [label="entropy = 0.0\nsamples = 28\nvalue = [0, 28]"] ;
296 -> 298 ;
299 [label="ElectronegativityMean <= 2.358\nentropy = 0.982\nsamples = 235\nvalue = [99, 136]"] ;
295 -> 299 ;
300 [label="entropy = 0.914\nsamples = 149\nvalue = [49, 100]"] ;
299 -> 300 ;
301 [label="entropy = 0.981\nsamples = 86\nvalue = [50, 36]"] ;
299 -> 301 ;
302 [label="ElectronegativityMean <= 2.439\nentropy = 0.605\nsamples = 2246\nvalue = [333, 1913]"] ;
294 -> 302 ;
303 [label="entropy = 0.0\nsamples = 84\nvalue = [0, 84]"] ;
302 -> 303 ;
304 [label="ColumnMean <= 12.271\nentropy = 0.62\nsamples = 2162\nvalue = [333, 1829]"] ;
302 -> 304 ;
305 [label="entropy = 0.811\nsamples = 356\nvalue = [89, 267]"] ;
304 -> 305 ;
306 [label="entropy = 0.571\nsamples = 1806\nvalue = [244, 1562]"] ;
304 -> 306 ;
307 [label="ColumnMean <= 14.558\nentropy = 0.862\nsamples = 1278\nvalue = [364, 914]"] ;
277 -> 307 ;
308 [label="ColumnMean <= 13.655\nentropy = 0.725\nsamples = 283\nvalue = [57, 226]"] ;
307 -> 308 ;
309 [label="RowMean <= 2.283\nentropy = 0.918\nsamples = 15\nvalue = [10, 5]"] ;
308 -> 309 ;
310 [label="entropy = 0.0\nsamples = 8\nvalue = [8, 0]"] ;
309 -> 310 ;
311 [label="ElectronegativityMin <= 0.94\nentropy = 0.863\nsamples = 7\nvalue = [2, 5]"] ;
309 -> 311 ;
312 [label="entropy = 0.918\nsamples = 3\nvalue = [2, 1]"] ;
311 -> 312 ;
313 [label="entropy = 0.0\nsamples = 4\nvalue = [0, 4]"] ;
311 -> 313 ;
314 [label="AtomicRadiusMax <= 1.675\nentropy = 0.67\nsamples = 268\nvalue = [47, 221]"] ;
308 -> 314 ;
315 [label="ElectronegativityMean <= 3.134\nentropy = 0.833\nsamples = 140\nvalue = [37, 103]"] ;
314 -> 315 ;
316 [label="entropy = 0.799\nsamples = 136\nvalue = [33, 103]"] ;
315 -> 316 ;
317 [label="entropy = 0.0\nsamples = 4\nvalue = [4, 0]"] ;
315 -> 317 ;
318 [label="ElectronegativityMean <= 3.153\nentropy = 0.396\nsamples = 128\nvalue = [10, 118]"] ;
314 -> 318 ;
319 [label="entropy = 0.369\nsamples = 127\nvalue = [9, 118]"] ;
318 -> 319 ;
320 [label="entropy = 0.0\nsamples = 1\nvalue = [1, 0]"] ;
318 -> 320 ;
321 [label="AtomicWeightMax <= 55.392\nentropy = 0.891\nsamples = 995\nvalue = [307, 688]"] ;
307 -> 321 ;
322 [label="RowMean <= 2.372\nentropy = 0.801\nsamples = 435\nvalue = [106, 329]"] ;
321 -> 322 ;
323 [label="ColumnMean <= 14.844\nentropy = 0.859\nsamples = 347\nvalue = [98, 249]"] ;
322 -> 323 ;
324 [label="entropy = 0.999\nsamples = 54\nvalue = [26, 28]"] ;
323 -> 324 ;
325 [label="entropy = 0.804\nsamples = 293\nvalue = [72, 221]"] ;
323 -> 325 ;
326 [label="ElectronegativityMean <= 3.023\nentropy = 0.439\nsamples = 88\nvalue = [8, 80]"] ;
322 -> 326 ;
327 [label="entropy = 0.289\nsamples = 79\nvalue = [4, 75]"] ;
326 -> 327 ;
328 [label="entropy = 0.991\nsamples = 9\nvalue = [4, 5]"] ;
326 -> 328 ;
329 [label="ElectronegativityMean <= 3.246\nentropy = 0.942\nsamples = 560\nvalue = [201, 359]"] ;
321 -> 329 ;
330 [label="AtomicWeightMean <= 24.619\nentropy = 0.96\nsamples = 504\nvalue = [193, 311]"] ;
329 -> 330 ;
331 [label="entropy = 0.978\nsamples = 404\nvalue = [167, 237]"] ;
330 -> 331 ;
332 [label="entropy = 0.827\nsamples = 100\nvalue = [26, 74]"] ;
330 -> 332 ;
333 [label="AtomicRadiusMax <= 1.5\nentropy = 0.592\nsamples = 56\nvalue = [8, 48]"] ;
329 -> 333 ;
334 [label="entropy = 0.797\nsamples = 29\nvalue = [7, 22]"] ;
333 -> 334 ;
335 [label="entropy = 0.229\nsamples = 27\nvalue = [1, 26]"] ;
333 -> 335 ;
336 [label="ColumnMin <= 1.5\nentropy = 0.888\nsamples = 54046\nvalue = [16520, 37526]"] ;
226 -> 336 ;
337 [label="AtomicRadiusMean <= 0.915\nentropy = 0.767\nsamples = 19131\nvalue = [4279, 14852]"] ;
336 -> 337 ;
338 [label="RowMean <= 2.94\nentropy = 0.56\nsamples = 4135\nvalue = [541, 3594]"] ;
337 -> 338 ;
339 [label="ElectronegativityMean <= 2.687\nentropy = 0.536\nsamples = 4005\nvalue = [490, 3515]"] ;
338 -> 339 ;
340 [label="ColumnMean <= 12.268\nentropy = 0.338\nsamples = 735\nvalue = [46, 689]"] ;
339 -> 340 ;
341 [label="AtomicRadiusMean <= 0.904\nentropy = 0.554\nsamples = 272\nvalue = [35, 237]"] ;
340 -> 341 ;
342 [label="entropy = 0.387\nsamples = 198\nvalue = [15, 183]"] ;
341 -> 342 ;
343 [label="entropy = 0.842\nsamples = 74\nvalue = [20, 54]"] ;
341 -> 343 ;
344 [label="AtomicWeightMax <= 61.24\nentropy = 0.162\nsamples = 463\nvalue = [11, 452]"] ;
340 -> 344 ;
345 [label="entropy = 0.081\nsamples = 398\nvalue = [4, 394]"] ;
344 -> 345 ;
346 [label="entropy = 0.493\nsamples = 65\nvalue = [7, 58]"] ;
344 -> 346 ;
347 [label="ElectronegativityMean <= 2.691\nentropy = 0.573\nsamples = 3270\nvalue = [444, 2826]"] ;
339 -> 347 ;
348 [label="AtomicWeightMean <= 23.204\nentropy = 0.934\nsamples = 83\nvalue = [29, 54]"] ;
347 -> 348 ;
349 [label="entropy = 0.337\nsamples = 16\nvalue = [1, 15]"] ;
348 -> 349 ;
350 [label="entropy = 0.98\nsamples = 67\nvalue = [28, 39]"] ;
348 -> 350 ;
351 [label="ElectronegativityMean <= 2.692\nentropy = 0.558\nsamples = 3187\nvalue = [415, 2772]"] ;
347 -> 351 ;
352 [label="entropy = 0.0\nsamples = 55\nvalue = [0, 55]"] ;
351 -> 352 ;
353 [label="entropy = 0.564\nsamples = 3132\nvalue = [415, 2717]"] ;
351 -> 353 ;
354 [label="AtomicRadiusMin <= 0.55\nentropy = 0.966\nsamples = 130\nvalue = [51, 79]"] ;
338 -> 354 ;
355 [label="AtomicWeightMean <= 58.589\nentropy = 0.583\nsamples = 43\nvalue = [6, 37]"] ;
354 -> 355 ;
356 [label="AtomicWeightMax <= 170.157\nentropy = 0.795\nsamples = 25\nvalue = [6, 19]"] ;
355 -> 356 ;
357 [label="entropy = 0.0\nsamples = 11\nvalue = [0, 11]"] ;
356 -> 357 ;
358 [label="entropy = 0.985\nsamples = 14\nvalue = [6, 8]"] ;
356 -> 358 ;
359 [label="entropy = 0.0\nsamples = 18\nvalue = [0, 18]"] ;
355 -> 359 ;
360 [label="ColumnMean <= 12.008\nentropy = 0.999\nsamples = 87\nvalue = [45, 42]"] ;
354 -> 360 ;
361 [label="ElectronegativityMean <= 2.873\nentropy = 0.619\nsamples = 26\nvalue = [4, 22]"] ;
360 -> 361 ;
362 [label="entropy = 0.426\nsamples = 23\nvalue = [2, 21]"] ;
361 -> 362 ;
363 [label="entropy = 0.918\nsamples = 3\nvalue = [2, 1]"] ;
361 -> 363 ;
364 [label="AtomicRadiusMean <= 0.902\nentropy = 0.913\nsamples = 61\nvalue = [41, 20]"] ;
360 -> 364 ;
365 [label="entropy = 0.74\nsamples = 43\nvalue = [34, 9]"] ;
364 -> 365 ;
366 [label="entropy = 0.964\nsamples = 18\nvalue = [7, 11]"] ;
364 -> 366 ;
367 [label="AtomicRadiusMax <= 1.575\nentropy = 0.81\nsamples = 14996\nvalue = [3738, 11258]"] ;
337 -> 367 ;
368 [label="ElectronegativityMean <= 2.627\nentropy = 0.948\nsamples = 4219\nvalue = [1546, 2673]"] ;
367 -> 368 ;
369 [label="ColumnMean <= 12.297\nentropy = 0.936\nsamples = 3736\nvalue = [1316, 2420]"] ;
368 -> 369 ;
370 [label="AtomicWeightMax <= 49.404\nentropy = 0.942\nsamples = 3648\nvalue = [1309, 2339]"] ;
369 -> 370 ;
371 [label="entropy = 0.99\nsamples = 127\nvalue = [71, 56]"] ;
370 -> 371 ;
372 [label="entropy = 0.935\nsamples = 3521\nvalue = [1238, 2283]"] ;
370 -> 372 ;
373 [label="AtomicWeightMax <= 58.813\nentropy = 0.401\nsamples = 88\nvalue = [7, 81]"] ;
369 -> 373 ;
374 [label="entropy = 0.89\nsamples = 13\nvalue = [4, 9]"] ;
373 -> 374 ;
375 [label="entropy = 0.242\nsamples = 75\nvalue = [3, 72]"] ;
373 -> 375 ;
376 [label="ElectronegativityMean <= 2.648\nentropy = 0.998\nsamples = 483\nvalue = [230, 253]"] ;
368 -> 376 ;
377 [label="AtomicWeightMax <= 124.68\nentropy = 0.96\nsamples = 214\nvalue = [132, 82]"] ;
376 -> 377 ;
378 [label="entropy = 0.915\nsamples = 182\nvalue = [122, 60]"] ;
377 -> 378 ;
379 [label="entropy = 0.896\nsamples = 32\nvalue = [10, 22]"] ;
377 -> 379 ;
380 [label="AtomicWeightMax <= 98.515\nentropy = 0.946\nsamples = 269\nvalue = [98, 171]"] ;
376 -> 380 ;
381 [label="entropy = 0.8\nsamples = 111\nvalue = [27, 84]"] ;
380 -> 381 ;
382 [label="entropy = 0.993\nsamples = 158\nvalue = [71, 87]"] ;
380 -> 382 ;
383 [label="AtomicWeightMax <= 170.994\nentropy = 0.729\nsamples = 10777\nvalue = [2192, 8585]"] ;
367 -> 383 ;
384 [label="ColumnMean <= 11.703\nentropy = 0.675\nsamples = 8190\nvalue = [1455, 6735]"] ;
383 -> 384 ;
385 [label="ColumnMean <= 9.161\nentropy = 0.743\nsamples = 4507\nvalue = [951, 3556]"] ;
384 -> 385 ;
386 [label="entropy = 0.595\nsamples = 1299\nvalue = [187, 1112]"] ;
385 -> 386 ;
387 [label="entropy = 0.792\nsamples = 3208\nvalue = [764, 2444]"] ;
385 -> 387 ;
388 [label="ColumnMean <= 11.812\nentropy = 0.576\nsamples = 3683\nvalue = [504, 3179]"] ;
384 -> 388 ;
389 [label="entropy = 0.317\nsamples = 611\nvalue = [35, 576]"] ;
388 -> 389 ;
390 [label="entropy = 0.616\nsamples = 3072\nvalue = [469, 2603]"] ;
388 -> 390 ;
391 [label="ColumnMean <= 13.106\nentropy = 0.862\nsamples = 2587\nvalue = [737, 1850]"] ;
383 -> 391 ;
392 [label="ColumnMean <= 13.098\nentropy = 0.898\nsamples = 2229\nvalue = [701, 1528]"] ;
391 -> 392 ;
393 [label="entropy = 0.885\nsamples = 2193\nvalue = [665, 1528]"] ;
392 -> 393 ;
394 [label="entropy = 0.0\nsamples = 36\nvalue = [36, 0]"] ;
392 -> 394 ;
395 [label="AtomicRadiusMean <= 1.354\nentropy = 0.471\nsamples = 358\nvalue = [36, 322]"] ;
391 -> 395 ;
396 [label="entropy = 0.561\nsamples = 274\nvalue = [36, 238]"] ;
395 -> 396 ;
397 [label="entropy = 0.0\nsamples = 84\nvalue = [0, 84]"] ;
395 -> 397 ;
398 [label="ColumnMean <= 12.541\nentropy = 0.935\nsamples = 34915\nvalue = [12241, 22674]"] ;
336 -> 398 ;
399 [label="ElectronegativityMin <= 1.37\nentropy = 0.996\nsamples = 14645\nvalue = [6766, 7879]"] ;
398 -> 399 ;
400 [label="AtomicWeightMax <= 185.023\nentropy = 0.984\nsamples = 12643\nvalue = [5392, 7251]"] ;
399 -> 400 ;
401 [label="ColumnMean <= 10.246\nentropy = 0.972\nsamples = 11195\nvalue = [4490, 6705]"] ;
400 -> 401 ;
402 [label="ColumnMin <= 2.5\nentropy = 0.978\nsamples = 1429\nvalue = [838, 591]"] ;
401 -> 402 ;
403 [label="entropy = 0.99\nsamples = 993\nvalue = [437, 556]"] ;
402 -> 403 ;
404 [label="entropy = 0.403\nsamples = 436\nvalue = [401, 35]"] ;
402 -> 404 ;
405 [label="AtomicRadiusMean <= 1.005\nentropy = 0.954\nsamples = 9766\nvalue = [3652, 6114]"] ;
401 -> 405 ;
406 [label="entropy = 0.856\nsamples = 2784\nvalue = [781, 2003]"] ;
405 -> 406 ;
407 [label="entropy = 0.977\nsamples = 6982\nvalue = [2871, 4111]"] ;
405 -> 407 ;
408 [label="AtomicWeightMax <= 193.65\nentropy = 0.956\nsamples = 1448\nvalue = [902, 546]"] ;
400 -> 408 ;
409 [label="ColumnMean <= 11.357\nentropy = 0.759\nsamples = 356\nvalue = [278, 78]"] ;
408 -> 409 ;
410 [label="entropy = 0.437\nsamples = 133\nvalue = [121, 12]"] ;
409 -> 410 ;
411 [label="entropy = 0.876\nsamples = 223\nvalue = [157, 66]"] ;
409 -> 411 ;
412 [label="AtomicRadiusMax <= 1.775\nentropy = 0.985\nsamples = 1092\nvalue = [624, 468]"] ;
408 -> 412 ;
413 [label="entropy = 0.675\nsamples = 180\nvalue = [148, 32]"] ;
412 -> 413 ;
414 [label="entropy = 0.999\nsamples = 912\nvalue = [476, 436]"] ;
412 -> 414 ;
415 [label="RowMean <= 3.304\nentropy = 0.897\nsamples = 2002\nvalue = [1374, 628]"] ;
399 -> 415 ;
416 [label="ElectronegativityMean <= 2.722\nentropy = 0.896\nsamples = 726\nvalue = [227, 499]"] ;
415 -> 416 ;
417 [label="AtomicWeightMean <= 28.198\nentropy = 0.987\nsamples = 335\nvalue = [145, 190]"] ;
416 -> 417 ;
418 [label="entropy = 0.67\nsamples = 57\nvalue = [10, 47]"] ;
417 -> 418 ;
419 [label="entropy = 0.999\nsamples = 278\nvalue = [135, 143]"] ;
417 -> 419 ;
420 [label="ColumnMean <= 12.518\nentropy = 0.741\nsamples = 391\nvalue = [82, 309]"] ;
416 -> 420 ;
421 [label="entropy = 0.712\nsamples = 384\nvalue = [75, 309]"] ;
420 -> 421 ;
422 [label="entropy = 0.0\nsamples = 7\nvalue = [7, 0]"] ;
420 -> 422 ;
423 [label="ColumnMean <= 11.992\nentropy = 0.472\nsamples = 1276\nvalue = [1147, 129]"] ;
415 -> 423 ;
424 [label="AtomicWeightMin <= 10.511\nentropy = 0.284\nsamples = 709\nvalue = [674, 35]"] ;
423 -> 424 ;
425 [label="entropy = 0.918\nsamples = 6\nvalue = [4, 2]"] ;
424 -> 425 ;
426 [label="entropy = 0.273\nsamples = 703\nvalue = [670, 33]"] ;
424 -> 426 ;
427 [label="ElectronegativityMin <= 1.585\nentropy = 0.648\nsamples = 567\nvalue = [473, 94]"] ;
423 -> 427 ;
428 [label="entropy = 0.843\nsamples = 214\nvalue = [156, 58]"] ;
427 -> 428 ;
429 [label="entropy = 0.475\nsamples = 353\nvalue = [317, 36]"] ;
427 -> 429 ;
430 [label="ColumnMin <= 6.5\nentropy = 0.842\nsamples = 20270\nvalue = [5475, 14795]"] ;
398 -> 430 ;
431 [label="ElectronegativityMin <= 1.98\nentropy = 0.744\nsamples = 10532\nvalue = [2227, 8305]"] ;
430 -> 431 ;
432 [label="ColumnMean <= 12.79\nentropy = 0.77\nsamples = 9326\nvalue = [2102, 7224]"] ;
431 -> 432 ;
433 [label="ElectronegativityMax <= 2.62\nentropy = 0.938\nsamples = 1325\nvalue = [469, 856]"] ;
432 -> 433 ;
434 [label="entropy = 0.968\nsamples = 233\nvalue = [141, 92]"] ;
433 -> 434 ;
435 [label="entropy = 0.882\nsamples = 1092\nvalue = [328, 764]"] ;
433 -> 435 ;
436 [label="AtomicRadiusMax <= 1.475\nentropy = 0.73\nsamples = 8001\nvalue = [1633, 6368]"] ;
432 -> 436 ;
437 [label="entropy = 0.832\nsamples = 2072\nvalue = [546, 1526]"] ;
436 -> 437 ;
438 [label="entropy = 0.687\nsamples = 5929\nvalue = [1087, 4842]"] ;
436 -> 438 ;
439 [label="ElectronegativityMean <= 2.504\nentropy = 0.48\nsamples = 1206\nvalue = [125, 1081]"] ;
431 -> 439 ;
440 [label="RowMean <= 3.702\nentropy = 0.17\nsamples = 675\nvalue = [17, 658]"] ;
439 -> 440 ;
441 [label="entropy = 0.918\nsamples = 9\nvalue = [3, 6]"] ;
440 -> 441 ;
442 [label="entropy = 0.147\nsamples = 666\nvalue = [14, 652]"] ;
440 -> 442 ;
443 [label="RowMean <= 2.776\nentropy = 0.729\nsamples = 531\nvalue = [108, 423]"] ;
439 -> 443 ;
444 [label="entropy = 0.368\nsamples = 184\nvalue = [13, 171]"] ;
443 -> 444 ;
445 [label="entropy = 0.847\nsamples = 347\nvalue = [95, 252]"] ;
443 -> 445 ;
446 [label="ColumnMean <= 13.86\nentropy = 0.919\nsamples = 9738\nvalue = [3248, 6490]"] ;
430 -> 446 ;
447 [label="ElectronegativityMean <= 3.112\nentropy = 0.984\nsamples = 2276\nvalue = [1308, 968]"] ;
446 -> 447 ;
448 [label="AtomicWeightMean <= 29.005\nentropy = 0.971\nsamples = 2166\nvalue = [1301, 865]"] ;
447 -> 448 ;
449 [label="entropy = 0.845\nsamples = 99\nvalue = [27, 72]"] ;
448 -> 449 ;
450 [label="entropy = 0.961\nsamples = 2067\nvalue = [1274, 793]"] ;
448 -> 450 ;
451 [label="ElectronegativityMin <= 1.69\nentropy = 0.342\nsamples = 110\nvalue = [7, 103]"] ;
447 -> 451 ;
452 [label="entropy = 0.771\nsamples = 31\nvalue = [7, 24]"] ;
451 -> 452 ;
453 [label="entropy = 0.0\nsamples = 79\nvalue = [0, 79]"] ;
451 -> 453 ;
454 [label="ColumnMin <= 11.5\nentropy = 0.827\nsamples = 7462\nvalue = [1940, 5522]"] ;
446 -> 454 ;
455 [label="AtomicWeightMin <= 13.009\nentropy = 0.923\nsamples = 3429\nvalue = [1161, 2268]"] ;
454 -> 455 ;
456 [label="entropy = 0.572\nsamples = 229\nvalue = [31, 198]"] ;
455 -> 456 ;
457 [label="entropy = 0.937\nsamples = 3200\nvalue = [1130, 2070]"] ;
455 -> 457 ;
458 [label="ColumnMax <= 16.5\nentropy = 0.708\nsamples = 4033\nvalue = [779, 3254]"] ;
454 -> 458 ;
459 [label="entropy = 0.798\nsamples = 2454\nvalue = [593, 1861]"] ;
458 -> 459 ;
460 [label="entropy = 0.523\nsamples = 1579\nvalue = [186, 1393]"] ;
458 -> 460 ;
}